tree
version=v4
num_class=1
num_tree_per_iteration=1
label_index=0
max_feature_idx=15
objective=regression
feature_names=hour_of_day day_of_week month is_weekend is_swiss_holiday temperature solar_radiation wind_speed cloud_cover hours_ahead wind_mw_lag_1h wind_mw_lag_24h wind_mw_lag_48h wind_mw_lag_168h wind_mw_rolling_24h_mean wind_mw_rolling_24h_std
feature_infos=[0:23] [0:6] [1:12] [0:1] [0:1] [-20.199999999999999:25.399999999999999] [0:991] [0:20.800000000000001] [0:100] [1:48] [0:76.260000000000005] [0:76.260000000000005] [0:76.260000000000005] [0:76.260000000000005] [0:69.154583333333335] [0:27.547577706578846]
tree_sizes=5814 6036 6004 5987 6024 5997 5980 6004 6013 5994 5988 5978 5989 5964 5965 5991 5963 5974 5954 5986 5945 5957 5937 5967 5963 5924 5939 5981 5958 5937 5947 5956 5975 5959 5896 5947 5919 5959 5939 5950 5940 5889 5944 5919 5973 5968 5921 5914 5927 5957 5908 5925 5937 5954 5959 5900 5989 5949 5918 5945 5902 5943 5895 5981 5901 5948 5953 5874 5938 5880 5939 5977 5992 5945 5892 5899 5963 5875 5888 5921 5913 5971 5973 5950 5907 5914 5939 5942 6016 5924 5902 5924 5893 5887 5854 5826 5817 5832 5824 5971 5905 5836 5940 5747 5759 5768 5791 5797 5830 5818 5790 5935 5850 5885 5742 5911 5770 5883 5769 5732 5880 5565 5732 5786 5838 5686 5777 5757 5784 5886 5944 5737 5700 5719 5861 5709 5828 5962 5853 5768 5766 5671 5652 5936 5754 5821 5877 5533 5771 5884 5830 5761 5722 5752 5756 5915 5662 5583 5785 5847 5750 5861 5830 5967 5777 5726 5837 5892 5719 5794 5920 5783 5723 5937 5833 5912 5739 5654 5560 5851 5927 5720 5812 5842 5547 5759 5882 5732 5806 5719 5836 5732 5711 5751 5726 5648 5699 5906 5800 5692 5719 5548 5624 5591 5714 5848 5691 5784 5651 5901 5783 5767 5750 5764 5715 5654 5929 5644 5700 5733 5730 5789 5781 5680 5810 5830 5602 5774 5847 5845 5764 5707 5643 5607 5927 5834 5628 5738 5791 5748 5771 5622 5711 5731 5785 5814 5833 5740 5839 5797 5692 5703 5822 5594 5804 5731 5758 5785 5741 5785 5835 5808 5797 5660 5775 5600 5672 5749 5636 5626 5598 5760 5780 5794 5804 5826 5757 5590 5654 5620 5794 5550 5784 5845 5807 5741 5703 5586 5787 5792 5907 5780 5784 5764 5811 5804 5609 5806 5672 5813 5719 5777 5664 5733 5782 5578 5760 5718 5788 5827 5767 5855 5725 5767 5687 5632 5664 5823 5701 5698 5852 5780 5758 5563 5584 5828 5709 5752 5794 5936 5748 5596 5737 5766 5785 5668 5586 5697 5820 5766 5659 5707 5706 5567 5559 5836 5790 5754 5747 5804 5786 5869 5745 5802 5634 5900 5705 5807 5798 5586 5596 5741 5783 5648 5904 5627 5786 5665 5620 5799 5725 5772 5666 5806 5765 5737 5817 5620 5755 5799 5760 5838 5671 5825 5782 5790 5826 5837 5787 5780 5823 5719 5777 5718 5684 5678 5589 5776 5810 5776 5842 5761 5735 5781 5829 5739 5629 5895 5691 5751 5596 5558 5796 5881 5622 5726 5780 5690 5895 5671 5895 5738 5754 5641 5619 5620 5576 5755 5682 5813 5626 5849 5609 5633 5765 5747 5744 5730 5758 5683 5786 5762 5570 5660 5861 5733 5714 5833 5642 5850 5676 5643 5666 5658 5724 5765 5728 5646 5676 5625 5646 5621 5777 5851 5632 5742 5633 5700 5641 5557 5604 5798 5577 5575 5566 5629 5592 5565 5520 5800 5827 5674 5728 5673 5694 5575 5714 5675 5775 5723 5925 5657 5684 5882 5735 5644 5617 5733 5779 5903

Tree=0
num_leaves=63
num_cat=0
split_feature=10 7 7 10 9 5 5 8 5 7 7 10 7 5 14 14 7 2 5 10 12 7 7 5 15 5 8 10 9 8 5 8 2 7 9 1 7 10 7 7 2 5 6 14 7 2 2 2 9 2 13 5 2 15 14 12 12 9 5 14 2 14
split_gain=7.91837e+07 2.14027e+07 1.77924e+07 1.03934e+07 5.17534e+06 4.17958e+06 3.87802e+06 3.48518e+06 3.29928e+06 2.93905e+06 2.8985e+06 2.39146e+06 2.04699e+06 1.98893e+06 1.9379e+06 1.92524e+06 1.53989e+06 1.34419e+06 1.34165e+06 1.29528e+06 1.05472e+06 999465 920215 886363 862264 859956 826002 779819 705964 696748 695178 654032 644084 640804 634363 631630 596840 586116 562470 548056 546991 545024 542595 488240 481324 477914 526753 468235 466151 440522 434450 432156 448553 402782 385610 385182 383368 370490 353114 345183 314102 313897
threshold=27.135000000000002 7.6500000000000012 5.9500000000000011 10.515000000000002 13.500000000000002 0.65000000000000002 3.8500000000000001 96.500000000000014 3.4500000000000006 3.6500000000000008 4.2500000000000009 41.675000000000004 8.2500000000000018 4.6500000000000012 1.7175000000000005 1.0000000180025095e-35 3.9500000000000006 9.5000000000000018 0.15000000000000005 52.905000000000008 38.505000000000003 11.15 4.1500000000000012 3.6500000000000008 0.71688587816563321 -3.2499999999999996 33.500000000000007 40.735000000000007 11.500000000000002 99.500000000000014 1.9500000000000002 21.500000000000004 3.5000000000000004 3.7500000000000004 12.500000000000002 3.5000000000000004 8.0500000000000025 44.555000000000007 3.9500000000000006 13.15 1.5000000000000002 4.6500000000000012 388.50000000000006 8.0956250000000018 3.1500000000000008 1.5000000000000002 3.5000000000000004 2.5000000000000004 6.5000000000000009 2.5000000000000004 22.195000000000004 -2.8499999999999992 1.5000000000000002 0.71688587816563321 7.1147916666666671 18.245000000000001 38.055000000000007 9.5000000000000018 3.9500000000000006 58.573125000000005 1.5000000000000002 36.634375000000006
decision_type=2 2 2 2 2 2 2 2 2 2 2 2 2 2 2 2 2 2 2 2 2 2 2 2 2 2 2 2 2 2 2 2 2 2 2 2 2 2 2 2 2 2 2 2 2 2 2 2 2 2 2 2 2 2 2 2 2 2 2 2 2 2
left_child=1 3 4 7 11 15 10 14 12 23 42 41 31 25 -1 -3 34 32 28 40 24 29 -20 35 -18 -11 -8 -27 -16 49 57 -4 -7 -30 -9 37 47 -6 -28 -19 -14 -2 44 -34 -5 -23 55 -10 -13 -17 60 -33 -53 -36 -24 -47 -12 -26 -55 -29 -31 -15
right_child=2 5 8 6 9 17 26 16 36 13 56 48 19 61 18 21 20 39 22 -21 -22 45 54 -25 30 27 38 59 33 50 -32 51 43 -35 53 -37 -38 -39 -40 -41 -42 -43 -44 -45 -46 46 -48 -49 -50 -51 -52 52 -54 58 -56 -57 -58 -59 -60 -61 -62 -63
leaf_value=16.161719861275227 17.48447312507491 16.06774522997441 17.343010005485876 16.820344842938631 17.061226410184325 17.432755976252881 16.564091268118112 16.464464068525515 18.370025854368116 17.267925814608567 17.12779818189393 18.13179413824443 18.481359964877569 16.84056439534859 16.491707821261802 17.726902903847048 16.152177837221359 17.345362793561311 16.439465812737502 18.774667240547643 17.265870500662984 18.819302569129153 16.517725411097683 16.760801464853081 16.65592267953836 17.371277719971051 16.674928931616627 17.704196001419618 16.63009933625742 18.516318861223741 16.743524468489547 17.747738502802921 16.725545372667629 16.860165286805792 16.171427191422584 16.935056301970157 17.711076228279634 17.376018747927318 16.849292354890451 18.157463789312256 18.063987149957768 17.112625170850013 16.555910280935386 17.041498988099487 16.97599425360249 17.341688836684078 18.307229905162057 17.220593380584319 17.765017386008637 17.220353128584815 18.055549749483493 18.448657204620076 17.939161407992078 16.770757450532784 16.671290806021872 18.080578683675395 17.354246332569332 17.049230263853161 16.606254598231899 18.611316382118016 17.546056334773937 17.35512211069344
leaf_weight=34809 40298 1851 5799 120149 41328 6781 68032 45112 937 44324 93676 15307 10076 19441 43526 6132 4919 20804 259098 10395 13474 1820 85852 28902 7123 28245 86902 29049 72912 889 86197 24063 20505 51747 3770 48605 15469 23025 98877 2308 35534 13044 13368 30288 84671 4008 5824 16280 19958 14304 8570 5348 22471 71401 78037 3150 23349 37563 60064 1088 13514 3497
leaf_count=34809 40298 1851 5799 120149 41328 6781 68032 45112 937 44324 93676 15307 10076 19441 43526 6132 4919 20804 259098 10395 13474 1820 85852 28902 7123 28245 86902 29049 72912 889 86197 24063 20505 51747 3770 48605 15469 23025 98877 2308 35534 13044 13368 30288 84671 4008 5824 16280 19958 14304 8570 5348 22471 71401 78037 3150 23349 37563 60064 1088 13514 3497
internal_value=16.9134 16.7492 17.4643 16.6954 17.2736 17.3394 16.8606 16.5936 17.9284 17.1639 16.9722 17.6047 18.0557 17.34 16.5243 17.6552 16.7251 17.1044 16.5456 18.271 16.8439 17.7057 16.4981 17.0079 16.8021 17.434 16.7131 17.56 16.6651 17.5847 16.8265 17.8466 16.9751 16.7256 16.6268 17.0711 17.4857 17.1739 16.7677 17.4265 18.1562 17.3935 16.8645 16.9139 16.8847 18.0605 17.9541 17.2831 17.9242 17.3723 17.7737 17.9029 18.0371 16.681 16.5908 17.6668 17.173 16.9865 16.6956 17.7369 17.6059 16.919
internal_weight=2.18786e+06 1.68538e+06 502483 1.54463e+06 356111 140748 589024 955604 146372 267504 335213 88607 113686 125644 625981 60062 329623 80686 591172 56005 149276 58211 422987 141860 135802 102706 253811 58382 168185 43409 130883 57681 57574 124659 180347 112958 32686 64353 185779 23112 45610 53342 218188 50793 204820 14802 12982 17217 35265 20436 22973 51882 27819 135235 163889 7158 117025 44686 131465 30137 14403 22938
internal_count=2187859 1685376 502483 1544628 356111 140748 589024 955604 146372 267504 335213 88607 113686 125644 625981 60062 329623 80686 591172 56005 149276 58211 422987 141860 135802 102706 253811 58382 168185 43409 130883 57681 57574 124659 180347 112958 32686 64353 185779 23112 45610 53342 218188 50793 204820 14802 12982 17217 35265 20436 22973 51882 27819 135235 163889 7158 117025 44686 131465 30137 14403 22938
is_linear=0
shrinkage=1


Tree=1
num_leaves=63
num_cat=0
split_feature=10 7 7 10 9 5 5 8 5 7 7 10 5 14 7 14 7 5 2 10 14 5 2 10 7 15 7 5 10 8 9 9 9 2 2 7 7 5 8 7 15 8 5 14 6 7 5 9 5 8 1 7 5 2 2 13 10 9 2 14 2 2
split_gain=7.14633e+07 1.9316e+07 1.61107e+07 9.44974e+06 4.18297e+06 4.09342e+06 3.77207e+06 3.43694e+06 2.90701e+06 2.87392e+06 2.36623e+06 1.85775e+06 1.75313e+06 1.73753e+06 1.7355e+06 1.6378e+06 1.60655e+06 1.32184e+06 1.21313e+06 1.19633e+06 1.15379e+06 1.45959e+06 907706 824698 821745 817101 809574 678977 668651 625955 612383 611744 587945 581286 534828 527821 518162 482394 478480 475913 469070 462143 446808 440636 430944 429676 425491 424952 417848 414953 414770 412517 410001 407696 397614 403050 374792 360571 340192 317692 317487 313880
threshold=27.135000000000002 7.6500000000000012 5.1500000000000012 11.815000000000003 14.500000000000002 4.0500000000000007 0.65000000000000002 91.500000000000014 4.1500000000000012 8.2500000000000018 3.9500000000000006 41.675000000000004 4.6500000000000012 1.0000000180025095e-35 3.9500000000000006 1.7175000000000005 3.2500000000000004 0.25000000000000006 9.5000000000000018 53.735000000000007 1.0000000180025095e-35 1.9500000000000002 1.5000000000000002 45.475000000000001 8.0500000000000025 4.5923858465363017 4.2500000000000009 -2.2499999999999996 45.905000000000008 33.500000000000007 10.500000000000002 12.500000000000002 13.500000000000002 3.5000000000000004 1.5000000000000002 3.7500000000000004 10.450000000000001 7.0500000000000007 99.500000000000014 5.3500000000000005 0.71688587816563321 75.500000000000014 3.9500000000000006 8.0956250000000018 388.50000000000006 5.5500000000000007 4.7500000000000009 6.5000000000000009 -2.9499999999999997 91.500000000000014 3.5000000000000004 3.9500000000000006 -4.4499999999999993 9.5000000000000018 11.500000000000002 22.195000000000004 42.035000000000004 13.500000000000002 2.5000000000000004 27.184791666666673 2.5000000000000004 1.5000000000000002
decision_type=2 2 2 2 2 2 2 2 2 2 2 2 2 2 2 2 2 2 2 2 2 2 2 2 2 2 2 2 2 2 2 2 2 2 2 2 2 2 2 2 2 2 2 2 2 2 2 2 2 2 2 2 2 2 2 2 2 2 2 2 2 2
left_child=1 3 4 7 11 9 13 15 10 23 44 46 16 -3 31 -1 50 32 33 34 -16 30 48 41 37 53 -19 -25 49 -10 -22 -9 -17 -8 -11 -34 -20 -7 -27 -12 -33 -4 -42 -35 -5 -32 -2 -13 -15 -18 56 -31 -30 -24 55 -40 -6 -23 -37 -36 -59 -29
right_child=2 6 5 8 12 24 18 14 29 19 39 47 -14 22 20 17 28 26 36 -21 21 57 25 27 -26 38 -28 61 52 51 45 40 35 43 59 58 -38 -39 54 -41 42 -43 -44 -45 -46 -47 -48 -49 -50 -51 -52 -53 -54 -55 -56 -57 -58 60 -60 -61 -62 -63
leaf_value=-0.72206138520613727 0.4977555397067992 -0.80338726043701181 0.46913854486036471 -0.031916867968213303 0.072982035466631387 0.54419396669829123 0.4933729693445198 -0.4158618719173659 -0.32014380145842297 1.495319642952103 0.15070028285487669 1.1334686983192357 -0.11523309544575666 0.99827180145556849 -0.78186164700029825 -0.37351133169614703 0.15528011642510203 -0.45263283500917262 0.30466843374316305 1.7942744102831469 -0.19089476806229455 -0.30802076809959233 0.14691511841263533 0.80128236659677943 0.74699974725025886 0.59537034164448288 -0.30872781073644812 1.6035250195633983 0.33814806515378693 -0.21140022490511218 0.10688927149374272 -0.71705396285077105 -0.26112132685443956 -0.17847711976734759 0.91158160692277113 0.14162553051795676 0.79413433064765782 0.10626735870195064 0.61802840731378861 0.34657253789744563 -0.13645870455748507 0.7939224680062289 -0.30123106676227196 0.12167881458452978 -0.3581739491664509 0.40144879405812406 0.15327607885388417 0.75822008983772926 1.7849655577381576 0.41055414186226885 -0.023497498248107464 -0.046272650997113834 0.70594457108005459 0.64799120119125109 1.3110844103506727 1.1747679892456135 0.34445714288612517 0.6452378638803814 -0.13793282888717892 1.2075292451072819 -0.11743991956498145 1.1131260642713909
leaf_weight=31129 37994 1851 14807 163801 28747 10114 6781 57916 54884 10368 75906 12509 39222 4985 5529 52227 28247 258320 14484 9379 11810 29406 8554 19628 13799 14434 157215 4164 11745 70768 36957 4760 70057 20505 15039 16004 8628 16625 8709 52433 87870 42079 77368 30288 10788 18617 11732 19011 2552 36477 38731 81241 21353 7726 6064 5187 22795 1387 34004 22840 84231 15078
leaf_count=31129 37994 1851 14807 163801 28747 10114 6781 57916 54884 10368 75906 12509 39222 4985 5529 52227 28247 258320 14484 9379 11810 29406 8554 19628 13799 14434 157215 4164 11745 70768 36957 4760 70057 20505 15039 16004 8628 16625 8709 52433 87870 42079 77368 30288 10788 18617 11732 19011 2552 36477 38731 81241 21353 7726 6064 5187 22795 1387 34004 22840 84231 15078
internal_value=-4.02816e-10 -0.156032 0.523347 -0.207128 0.298904 0.880477 0.40472 -0.293934 -0.0309353 0.998576 0.0677352 0.606837 0.188845 0.704731 -0.182764 -0.368624 0.252252 -0.349908 0.181393 1.27757 -0.0702794 -0.0487105 0.752686 0.830678 0.433631 0.676541 -0.398187 1.00819 0.392627 -0.175407 0.13608 -0.275518 -0.233467 0.0585559 1.17712 -0.172549 0.487392 0.271913 0.814675 0.230724 -0.227705 0.709384 -0.213609 0.000506656 -0.0520766 0.205565 0.416481 0.907141 1.26464 0.299147 0.100139 -0.123148 0.57543 0.384711 0.973264 0.825844 0.193045 -0.156965 -0.0484661 1.09003 -0.105085 1.21925
internal_weight=2.18786e+06 1.68538e+06 502483 1.54463e+06 308563 193920 140748 1.03481e+06 509821 153382 302928 81246 227317 60062 415851 618956 188095 587827 80686 57626 187937 182408 58211 95756 40538 50674 415535 38870 97822 206893 67384 227914 172292 57574 48247 120065 23112 26739 34394 128339 169998 56886 165238 50793 174589 55574 49726 31520 7537 64724 90273 152009 33098 16280 19960 13896 51542 115024 50008 37879 85618 19242
internal_count=2187859 1685376 502483 1544628 308563 193920 140748 1034807 509821 153382 302928 81246 227317 60062 415851 618956 188095 587827 80686 57626 187937 182408 58211 95756 40538 50674 415535 38870 97822 206893 67384 227914 172292 57574 48247 120065 23112 26739 34394 128339 169998 56886 165238 50793 174589 55574 49726 31520 7537 64724 90273 152009 33098 16280 19960 13896 51542 115024 50008 37879 85618 19242
is_linear=0
shrinkage=0.05


Tree=2
num_leaves=63
num_cat=0
split_feature=10 7 7 10 9 5 8 5 5 7 7 10 5 15 7 14 7 7 2 10 12 7 5 5 10 5 15 5 5 8 8 2 9 8 7 6 7 1 10 10 9 1 2 14 7 2 12 5 2 14 2 13 15 5 9 14 9 2 14 1 14 15
split_gain=6.44988e+07 1.76106e+07 1.43829e+07 8.72652e+06 4.31897e+06 3.43051e+06 3.11695e+06 2.6498e+06 2.64032e+06 2.46483e+06 2.19193e+06 1.79425e+06 1.72836e+06 1.69098e+06 1.65459e+06 1.57206e+06 1.37484e+06 1.27299e+06 1.11491e+06 984060 979403 899504 853612 797516 737089 730714 727322 677612 674993 599860 575576 527703 517666 511889 488996 488600 478707 477463 461139 448115 428818 425436 407949 399794 378439 368466 364782 364307 401203 361380 357921 356862 348603 329843 329041 325132 317732 317115 310646 308528 302742 294005
threshold=27.475000000000005 7.6500000000000012 5.9500000000000011 11.815000000000003 12.500000000000002 0.65000000000000002 96.500000000000014 4.1500000000000012 3.4500000000000006 3.4500000000000006 4.4500000000000011 38.865000000000002 4.6500000000000012 0.71688587816563321 8.5500000000000025 1.0000000180025095e-35 3.9500000000000006 4.2500000000000009 9.5000000000000018 52.905000000000008 38.505000000000003 11.15 3.9500000000000006 -3.2499999999999996 36.435000000000009 1.0000000180025095e-35 0.71688587816563321 3.2500000000000004 1.8500000000000003 99.500000000000014 33.500000000000007 3.5000000000000004 13.500000000000002 21.500000000000004 3.1500000000000008 415.50000000000006 13.15 3.5000000000000004 46.865000000000002 44.555000000000007 14.500000000000002 3.5000000000000004 1.5000000000000002 8.2706250000000026 4.1500000000000012 2.5000000000000004 22.605000000000004 -2.8499999999999992 1.5000000000000002 51.481666666666676 2.5000000000000004 22.195000000000004 4.8389959951069104 5.6500000000000012 8.5000000000000018 30.195208333333337 23.500000000000004 4.5000000000000009 7.1147916666666671 4.5000000000000009 30.493333333333339 0.71688587816563321
decision_type=2 2 2 2 2 2 2 2 2 2 2 2 2 2 2 2 2 2 2 2 2 2 2 2 2 2 2 2 2 2 2 2 2 2 2 2 2 2 2 2 2 2 2 2 2 2 2 2 2 2 2 2 2 2 2 2 2 2 2 2 2 2
left_child=1 3 4 6 11 15 13 10 14 27 34 53 23 -1 33 -3 32 25 31 42 26 29 40 -11 -25 56 -18 37 54 45 -9 59 -8 -4 -5 -10 -20 39 -13 -6 -19 -23 -16 -33 -32 -17 -43 -35 -49 -26 -34 -31 -42 -2 -28 -12 -15 60 -27 -7 -14 -52
right_child=2 5 8 7 9 18 16 30 35 12 55 38 57 17 19 21 20 22 36 -21 -22 41 -24 24 49 58 28 -29 -30 51 44 43 50 47 -36 -37 -38 -39 -40 -41 52 46 -44 -45 -46 -47 -48 48 -50 -51 61 -53 -54 -55 -56 -57 -58 -59 -60 -61 -62 -63
leaf_value=-0.71873769294828049 0.48915288470491974 -0.76321787834167487 0.4283177368025779 -0.092388462089739387 0.1256594992099089 0.83380333812822482 -0.38183768030210458 -0.30319911010042133 0.65507756460191158 0.31069351835291648 0.22007537878141467 0.73472563027686444 -0.038352715000691789 -0.35372456808432301 1.4349980827294284 0.72842728962886616 -0.69024293767131251 -0.27754969757680836 0.39070777787542249 1.7038013954643394 0.33209129860425535 1.3344565548502887 -0.30181014883552226 0.34251541991166135 0.65543337019135262 -0.47147352818087712 -0.23852096053234939 -0.13947535424152974 -0.14976476698000135 0.62553729608728958 -0.19108455686791181 -0.16597838452429725 0.0055634515411903318 0.7729575781361997 0.05992970414446791 0.2362156543950821 1.1468506355080554 0.012435085840959143 1.0742432443828838 0.41460469861163624 -0.12778605291907591 0.55162473132819767 1.0564535977662257 0.11846319586087034 -0.033943764797177173 0.26698416775109701 1.2616628848631573 1.404320563315848 0.93991409447802932 1.195652982014159 -0.68070730937476664 1.0313034267867169 0.12594156257245778 0.14163366183374013 0.1314880357579879 0.45494000970131598 -0.19739985197661203 -0.055629611587029948 -0.3672336518536472 0.15894563433824616 1.0452608574304321 -0.2172817437560394
leaf_weight=28630 30674 1851 6109 116714 36724 3139 53838 55439 21810 49708 76942 22518 1231 68742 9176 6186 4919 23594 20991 9604 14954 7031 148545 22145 39498 152272 7010 28349 94963 14553 79369 21006 18454 25906 96058 10227 2325 43810 17992 21144 32890 5161 31722 29991 74070 14389 2785 5752 24287 3359 3522 8633 23007 8783 42056 18226 61661 22634 134694 3678 1353 121056
leaf_count=28630 30674 1851 6109 116714 36724 3139 53838 55439 21810 49708 76942 22518 1231 68742 9176 6186 4919 23594 20991 9604 14954 7031 148545 22145 39498 152272 7010 28349 94963 14553 79369 21006 18454 25906 96058 10227 2325 43810 17992 21144 32890 5161 31722 29991 74070 14389 2785 5752 24287 3359 3522 8633 23007 8783 42056 18226 61661 22634 134694 3678 1353 121056
internal_value=5.39488e-10 -0.146708 0.502364 -0.195439 0.329027 0.386828 -0.279237 -0.0276519 0.921849 0.233421 0.0655922 0.651776 0.379062 -0.342724 1.03584 0.67149 -0.160625 -0.326044 0.174239 1.24834 -0.0536509 0.716701 -0.231044 0.461455 0.576744 -0.377949 -0.0923785 0.0766911 -0.0719597 0.602234 -0.165118 0.0565295 -0.249685 0.862896 -0.0236229 0.521367 0.466108 0.136961 0.885518 0.231235 -0.0988018 1.05116 1.14138 0.00129984 -0.115228 0.40572 0.800487 0.910351 1.02884 0.697774 -0.199942 0.776619 -0.0233527 0.411796 0.0786253 0.265055 -0.279806 0.00427889 -0.422546 0.469695 0.529035 -0.230383
internal_weight=2.18786e+06 1.69334e+06 494515 1.55162e+06 349922 141719 1.03481e+06 516818 144593 269955 307940 79967 139928 674035 112556 60589 360772 645405 81130 50502 163902 58738 228036 114710 65002 417369 148948 130027 144029 43761 208878 57814 196870 62054 212772 32037 23316 101678 40510 57868 79491 14977 40898 50997 153439 20575 7946 55945 30039 42857 143032 23186 55897 39457 49066 95168 130403 25218 286966 6817 2584 124578
internal_count=2187859 1693344 494515 1551625 349922 141719 1034807 516818 144593 269955 307940 79967 139928 674035 112556 60589 360772 645405 81130 50502 163902 58738 228036 114710 65002 417369 148948 130027 144029 43761 208878 57814 196870 62054 212772 32037 23316 101678 40510 57868 79491 14977 40898 50997 153439 20575 7946 55945 30039 42857 143032 23186 55897 39457 49066 95168 130403 25218 286966 6817 2584 124578
is_linear=0
shrinkage=0.05


Tree=3
num_leaves=63
num_cat=0
split_feature=10 7 7 10 9 10 5 5 15 8 7 5 14 10 7 7 10 5 8 5 5 2 7 2 2 1 7 7 7 2 7 9 7 14 9 9 9 8 7 9 14 1 5 6 5 7 6 7 5 7 12 6 5 14 7 5 14 9 8 8 2 10
split_gain=5.82269e+07 1.57312e+07 1.32571e+07 7.753e+06 3.45817e+06 3.40805e+06 3.07552e+06 2.89015e+06 2.60571e+06 2.53263e+06 2.11691e+06 1.85199e+06 1.74062e+06 1.59375e+06 1.46473e+06 1.38856e+06 1.38625e+06 1.09863e+06 1.0051e+06 882965 849745 830997 826390 783310 707284 719423 702482 679362 671860 638813 628402 589066 577337 577054 563473 454062 451958 433438 430970 420179 417832 391512 381512 381160 376349 377072 360633 360406 349361 345850 338111 323368 431280 371769 300342 299030 334329 298868 294733 294143 291637 291358
threshold=27.135000000000002 7.6500000000000012 5.1500000000000012 10.515000000000002 15.500000000000002 43.555000000000007 2.8500000000000001 3.7500000000000004 0.71688587816563321 91.500000000000014 3.6500000000000008 6.4500000000000011 1.0000000180025095e-35 41.675000000000004 8.2500000000000018 4.1500000000000012 45.475000000000001 1.9500000000000002 99.500000000000014 -0.54999999999999993 3.9500000000000006 9.5000000000000018 9.0500000000000025 1.5000000000000002 10.500000000000002 3.5000000000000004 3.4500000000000006 3.9500000000000006 5.4500000000000011 2.5000000000000004 3.1500000000000008 10.500000000000002 5.3500000000000005 51.481666666666676 9.5000000000000018 9.5000000000000018 10.500000000000002 75.500000000000014 8.1500000000000004 7.5000000000000009 7.1147916666666671 1.5000000000000002 5.9500000000000011 411.50000000000006 3.6500000000000008 2.6500000000000008 388.50000000000006 3.3500000000000001 2.1500000000000008 13.15 36.135000000000012 257.50000000000006 -2.8499999999999992 51.481666666666676 10.450000000000001 -4.4499999999999993 58.573125000000005 11.500000000000002 90.500000000000014 35.500000000000007 2.5000000000000004 13.765000000000002
decision_type=2 2 2 2 2 2 2 2 2 2 2 2 2 2 2 2 2 2 2 2 2 2 2 2 2 2 2 2 2 2 2 2 2 2 2 2 2 2 2 2 2 2 2 2 2 2 2 2 2 2 2 2 2 2 2 2 2 2 2 2 2 2
left_child=1 3 4 8 13 11 12 10 -1 19 46 22 -3 42 34 31 20 35 29 36 26 61 37 -20 25 41 -6 59 40 -14 -18 -11 -12 48 -7 -17 -10 -4 -13 -15 -21 -25 -2 -29 45 -33 -5 -38 -16 -23 -37 52 -36 -54 -26 -32 -57 -19 -28 -9 -59 -8
right_child=2 6 5 7 16 14 21 27 9 15 32 38 18 39 33 17 30 57 23 28 -22 49 -24 24 54 -27 58 43 -30 -31 55 44 -34 -35 51 50 47 -39 -40 -41 -42 -43 -44 -45 -46 -47 -48 -49 -50 -51 -52 -53 53 -55 -56 56 -58 60 -60 -61 -62 -63
leaf_value=-0.67660705985646186 0.43066284237102287 -0.74591898028216175 0.39218646665306367 -0.051967695027763473 0.037393827172022831 1.1841752230450773 -0.068236693148465963 -0.37009347813965254 -0.37818214095321018 -0.393731141096685 0.11321583027046418 0.043737818634407372 0.76978856164040499 1.0031009131323614 1.3018636670117825 -0.20111436486676465 0.18102713250242364 -0.30812247379085772 1.4228197425240836 -0.44549829613863157 -0.13496287404723756 0.33715252263570333 0.96462275622201743 0.54605638779401922 0.79341891166910317 0.29457712336609987 0.14433785363409973 -0.02143711835552441 -0.22711723908710063 0.27952620747926138 0.28466195030356761 -0.23618753019646788 0.31116445213747662 1.8959918071075568 0.64763175099900949 0.14202550615089476 -0.26426431542495937 0.6922859511173538 0.55952607121891884 0.64867412742507069 -0.33249116842221343 1.2953425343403939 0.094608392972868799 -0.19454253932353766 -0.26885131253172517 -0.031047322908533986 -0.36360907837791256 -0.084069565136280333 0.90567430243932812 1.0721908821401371 0.48953544183500575 0.443944583314139 0.93038807178350302 1.7195877622038784 1.23975436685302 0.54634988433030895 1.4701291458794445 0.74393974838326282 0.38831468245597489 -0.20323087809800697 -0.10335957335628224 0.20184986456123766
leaf_weight=38733 42896 2379 16167 160772 66324 10650 34467 38062 34613 46295 105419 15109 9346 14753 24481 7876 30532 20322 4433 180932 35449 15697 23166 3436 9728 12744 21521 78627 73346 22986 12478 40386 56619 3414 16320 35180 53769 47042 5533 19304 149284 3539 10516 53395 84977 50301 9852 57342 7201 1782 8738 6219 16982 1636 6153 24631 1020 1030 29139 86278 72480 14058
leaf_count=38733 42896 2379 16167 160772 66324 10650 34467 38062 34613 46295 105419 15109 9346 14753 24481 7876 30532 20322 4433 180932 35449 15697 23166 3436 9728 12744 21521 78627 73346 22986 12478 40386 56619 3414 16320 35180 53769 47042 5533 19304 149284 3539 10516 53395 84977 50301 9852 57342 7201 1782 8738 6219 16982 1636 6153 24631 1020 1030 29139 86278 72480 14058
internal_value=7.03395e-10 -0.140843 0.4724 -0.186954 0.268802 0.796362 0.365207 -0.0442737 -0.274901 -0.257931 0.0529537 0.607475 0.584844 0.534925 1.02897 -0.156348 0.163519 -0.0363731 0.628593 -0.325911 0.079492 0.116487 0.709157 0.796056 0.71801 0.518006 0.144477 -0.170439 -0.364005 0.421243 0.350065 -0.235063 0.182383 1.27837 0.860015 0.148474 -0.220416 0.615529 0.181993 0.802207 -0.39441 0.926232 0.364499 -0.0914479 -0.193247 -0.122403 -0.0699622 -0.17127 1.21181 0.41209 0.211167 0.776134 0.835264 0.999737 0.966349 0.485423 0.583084 -0.138406 0.28467 -0.25431 -0.0914875 0.0100091
internal_weight=2.18786e+06 1.68538e+06 502483 1.54463e+06 308563 193920 140748 589024 955604 916871 332662 107017 74744 87469 86903 367585 221094 145626 72365 549286 152433 66004 86375 40033 35600 19719 116984 256362 403562 32332 68661 221959 162038 35096 51807 51794 145724 63209 20642 34057 330216 6975 53412 132022 175664 90687 170624 111111 31682 17479 43918 41157 34938 18618 15881 38129 25651 93832 50660 124340 73510 48525
internal_count=2187859 1685376 502483 1544628 308563 193920 140748 589024 955604 916871 332662 107017 74744 87469 86903 367585 221094 145626 72365 549286 152433 66004 86375 40033 35600 19719 116984 256362 403562 32332 68661 221959 162038 35096 51807 51794 145724 63209 20642 34057 330216 6975 53412 132022 175664 90687 170624 111111 31682 17479 43918 41157 34938 18618 15881 38129 25651 93832 50660 124340 73510 48525
is_linear=0
shrinkage=0.05


Tree=4
num_leaves=63
num_cat=0
split_feature=10 7 7 10 9 5 7 8 5 7 5 14 7 14 10 2 5 5 7 12 8 2 14 2 2 2 8 1 7 5 2 7 5 10 9 2 2 6 9 6 5 9 10 12 7 8 15 5 1 15 7 5 2 10 9 7 14 2 7 4 1 14
split_gain=5.25659e+07 1.49693e+07 1.11553e+07 7.87649e+06 3.19452e+06 2.87664e+06 2.73781e+06 2.73331e+06 2.11281e+06 1.97049e+06 1.92028e+06 1.59133e+06 1.37593e+06 1.29439e+06 1.2186e+06 1.17028e+06 1.15749e+06 1.10003e+06 1.08452e+06 973902 955141 831129 771580 733113 716438 683528 673843 667306 666948 660518 614082 536928 520393 487164 461426 457680 557592 444824 441394 428300 420656 408062 379397 374580 372452 368449 362901 383128 362312 352226 344979 339179 333581 331411 328145 312888 303135 302287 300303 299665 298835 286200
threshold=28.965000000000003 7.6500000000000012 5.1500000000000012 12.845000000000001 16.500000000000004 2.8500000000000001 8.2500000000000018 91.500000000000014 5.9500000000000011 4.4500000000000011 6.1500000000000012 1.0000000180025095e-35 3.9500000000000006 2.0208333333333335 45.475000000000001 1.5000000000000002 4.5500000000000007 0.35000000000000003 3.2500000000000004 33.985000000000007 99.500000000000014 9.5000000000000018 1.0000000180025095e-35 1.5000000000000002 11.500000000000002 10.500000000000002 49.500000000000007 3.5000000000000004 3.9500000000000006 3.8500000000000001 2.5000000000000004 4.8500000000000005 -3.6499999999999999 45.475000000000001 11.500000000000002 11.500000000000002 4.5000000000000009 388.50000000000006 5.5000000000000009 270.50000000000006 -2.3499999999999992 9.5000000000000018 43.085000000000008 38.505000000000003 2.7500000000000004 33.500000000000007 0.71688587816563321 3.9500000000000006 1.5000000000000002 3.5033441451352378 8.8500000000000032 4.5500000000000007 2.5000000000000004 57.485000000000007 7.5000000000000009 5.5500000000000007 51.481666666666676 11.500000000000002 2.6500000000000008 1.0000000180025095e-35 3.5000000000000004 8.0956250000000018
decision_type=2 2 2 2 2 2 2 2 2 2 2 2 2 2 2 2 2 2 2 2 2 2 2 2 2 2 2 2 2 2 2 2 2 2 2 2 2 2 2 2 2 2 2 2 2 2 2 2 2 2 2 2 2 2 2 2 2 2 2 2 2 2
left_child=1 3 4 7 14 11 10 13 9 37 26 -3 34 -1 38 53 18 31 60 22 30 61 -14 -22 42 27 -4 48 -19 41 -13 52 -20 -28 -9 36 39 44 -2 -34 -35 -24 -17 -11 -5 -10 -36 58 -25 -30 -23 -40 59 -8 -16 -21 -42 -32 -48 -15 -6 -7
right_child=2 5 6 8 16 21 15 12 45 43 -12 20 19 17 54 24 -18 28 32 55 23 50 29 25 -26 -27 33 -29 49 -31 57 -33 35 40 46 -37 -38 -39 51 -41 56 -43 -44 -45 -46 -47 47 -49 -50 -51 -52 -53 -54 -55 -56 -57 -58 -59 -60 -61 -62 -63
leaf_value=-0.6019464423212435 0.61836645181162897 -0.7086230560028538 0.41833467923176343 -0.078375146272457438 0.17009831973112766 -0.13978958023919449 1.3122034420170468 -0.35533736976416974 -0.28134384870561607 0.19875833056421888 0.13750038599729808 0.73605536661367799 -0.67409366014142125 -0.13714364518786656 1.056130683531834 0.69760122071573272 -0.10638662109443529 -0.39328033076905961 0.19566297020610043 0.11281232656192029 1.3570563402209339 0.098547861964050118 -0.22348110792875314 0.52386139145657962 1.3120313889794131 0.92621886051578228 0.66608765435899309 0.28398579191238515 -0.3540168257475178 -0.15997249643015063 0.17726357147700011 -0.01543297661549608 0.65062402116396201 0.72038164532629079 -0.61658638418663259 0.79730722509749463 0.17028957055115784 -0.26171931380107505 0.39934273479132965 0.14640996508081816 0.99868322239741403 0.091075238344808435 0.99912059249862573 0.43848829878518114 0.057303125107508249 -0.10942807797389467 -0.20351394182208385 -0.25897151831943732 1.2284468426754993 -0.21454788480303622 0.56064202869789748 0.057927225713368981 -0.28543107399986195 1.9076445045575632 0.68234955143301113 0.4957676690535287 1.6427699803953861 0.61581801094865096 -0.026643930380791721 1.1329681311080706 -0.027076185564192591 0.10768137877738825
leaf_weight=36212 18131 2379 15822 84142 45262 18913 11669 56612 42963 85717 16744 9977 5529 47345 9718 22872 32539 240237 34828 14519 4635 6034 12381 3611 9690 16851 45623 13186 73534 96734 18836 35053 18868 16024 4902 7873 17900 17134 32588 5422 18168 61645 19183 20119 126815 113507 46631 83372 3688 117775 12216 9365 99308 2922 14836 8431 2031 4965 49447 469 33394 30563
leaf_count=36212 18131 2379 15822 84142 45262 18913 11669 56612 42963 85717 16744 9977 5529 47345 9718 22872 32539 240237 34828 14519 4635 6034 12381 3611 9690 16851 45623 13186 73534 96734 18836 35053 18868 16024 4902 7873 17900 17134 32588 5422 18168 61645 19183 20119 126815 113507 46631 83372 3688 117775 12216 9365 99308 2922 14836 8431 2031 4965 49447 469 33394 30563
internal_value=1.16209e-10 -0.126711 0.474033 -0.171437 0.276775 0.357957 0.780399 -0.246301 -0.00501912 0.066023 0.632224 0.564699 -0.150099 -0.311458 0.533504 1.03596 0.165962 -0.294318 0.220148 -0.0528847 0.604689 0.119462 -0.0927706 0.763968 0.924442 0.69034 0.717039 0.496305 -0.337811 -0.073948 0.406777 -0.19129 0.344085 0.774783 -0.23048 0.44734 0.382033 -0.0167128 0.412221 0.538074 0.911684 0.038465 0.835136 0.24433 0.00318669 -0.156632 -0.192138 -0.180543 0.879871 -0.268156 0.40786 0.32313 -0.233189 1.43145 0.830285 0.253496 1.06345 0.268748 -0.112487 -0.124685 0.0863864 0.0130816
internal_weight=2.18786e+06 1.72639e+06 461472 1.58053e+06 280724 145854 180748 1.09014e+06 490397 333927 114412 78128 440203 649933 84638 66336 196086 613721 163547 199239 75749 67726 176289 41971 51745 37336 97668 20485 431546 170760 33778 182175 84891 81846 240964 50063 42190 228091 60084 24290 36223 74026 42055 105836 210957 156470 184352 179450 7299 191309 18250 41953 147122 14591 24554 22950 20199 23801 96078 47814 78656 49476
internal_count=2187859 1726387 461472 1580533 280724 145854 180748 1090136 490397 333927 114412 78128 440203 649933 84638 66336 196086 613721 163547 199239 75749 67726 176289 41971 51745 37336 97668 20485 431546 170760 33778 182175 84891 81846 240964 50063 42190 228091 60084 24290 36223 74026 42055 105836 210957 156470 184352 179450 7299 191309 18250 41953 147122 14591 24554 22950 20199 23801 96078 47814 78656 49476
is_linear=0
shrinkage=0.05


Tree=5
num_leaves=63
num_cat=0
split_feature=10 7 7 10 9 5 5 7 15 10 7 8 10 5 15 9 6 7 2 7 7 5 5 10 14 7 5 7 5 2 7 2 10 7 8 2 2 9 6 2 6 9 12 10 2 12 14 14 6 2 2 5 12 9 8 6 14 1 5 8 2 2
split_gain=4.75195e+07 1.27107e+07 1.09772e+07 6.25901e+06 3.43386e+06 2.78024e+06 2.71909e+06 2.10347e+06 2.01524e+06 2.00085e+06 1.88424e+06 1.87381e+06 1.49043e+06 1.44817e+06 1.2128e+06 1.13715e+06 975732 933111 842698 765209 750088 746489 677841 658096 640624 619061 608459 579914 497918 496981 470496 434940 429275 429136 425484 397051 522385 386497 381566 373983 368855 360511 338576 337587 333611 330144 317976 316981 306833 304496 457072 307431 299615 291198 282109 276968 275819 272806 266863 265465 254087 251337
threshold=26.785000000000004 7.5500000000000007 6.1500000000000012 9.2550000000000008 11.500000000000002 3.7500000000000004 0.65000000000000002 3.6500000000000008 0.71688587816563321 41.675000000000004 3.4500000000000006 91.500000000000014 38.865000000000002 4.6500000000000012 0.71688587816563321 11.500000000000002 313.50000000000006 4.1500000000000012 9.5000000000000018 8.5500000000000025 10.250000000000002 3.8500000000000001 -3.2499999999999996 42.035000000000004 31.244791666666671 3.9500000000000006 -0.54999999999999993 5.1500000000000012 2.1500000000000008 1.5000000000000002 5.4500000000000011 3.5000000000000004 57.485000000000007 10.450000000000001 99.500000000000014 2.5000000000000004 11.500000000000002 9.5000000000000018 411.50000000000006 8.5000000000000018 140.50000000000003 27.500000000000004 38.055000000000007 46.865000000000002 11.500000000000002 36.135000000000012 7.9214583333333346 6.7566666666666677 388.50000000000006 4.5000000000000009 10.500000000000002 1.4500000000000002 18.025000000000002 11.500000000000002 55.500000000000007 372.50000000000006 36.634375000000006 4.5000000000000009 -9.1499999999999968 11.500000000000002 4.5000000000000009 2.5000000000000004
decision_type=2 2 2 2 2 2 2 2 2 2 2 2 2 2 2 2 2 2 2 2 2 2 2 2 2 2 2 2 2 2 2 2 2 2 2 2 2 2 2 2 2 2 2 2 2 2 2 2 2 2 2 2 2 2 2 2 2 2 2 2 2 2
left_child=1 3 4 8 12 10 14 23 -1 16 48 26 -2 22 -3 -13 35 60 31 53 34 45 58 55 44 54 37 -12 32 -22 47 57 -21 -20 -16 -4 59 -10 -27 52 49 -25 -29 -14 -24 -19 -33 -28 -5 51 -51 -26 -31 -11 -7 -6 -15 -8 -9 -37 -17 -39
right_child=2 6 9 5 7 25 18 13 11 19 27 15 43 56 20 17 -18 21 33 28 29 -23 24 41 40 38 30 42 -30 39 -32 46 -34 -35 -36 36 -38 61 -40 -41 -42 -43 -44 -45 -46 -47 -48 -49 -50 50 -52 -53 -54 -55 -56 -57 -58 -59 -60 -61 -62 -63
leaf_value=-0.61358494442391054 0.3621505296655268 -0.56928857609973105 0.90199310217959183 -0.068029138078819773 0.016115149643969193 -0.32534181775809395 0.75456459305867685 0.035687531612095966 -0.37569212288589909 1.0617595128425066 0.079370663717969095 -0.32720505258724486 0.66540045237257273 -0.058556544165399155 0.31264930961732174 -0.076318583420009078 0.21740711992497672 0.10178423519968566 0.22780964290447689 1.1594283998441488 1.5205889096723906 -0.1084621006514212 0.28506918845108065 0.35077505515552776 0.79875687171478504 -0.033343464834872438 -0.41158648941894066 0.20261859412078659 0.79466464844371065 0.31885981049852263 -0.21439643747446821 -0.1574699605508616 1.6835696382565315 0.67125114753275938 0.64650569225097387 -0.043122516915216014 0.98023508595979458 -0.059417467453177289 -0.19583891431882838 1.0101082475340086 0.40962267605462604 0.10173331383049505 0.47622047767527226 0.96411537361657451 0.82981464553663509 0.45269407256539146 0.086679254165579311 -0.3087763861091446 -0.35264299456437859 0.25697404689639164 0.83780291867792833 1.3796298715778714 0.86891449181736535 0.73872524736679968 -0.18462942943583915 -0.28215893898794014 0.39587798112292871 0.12170439321337301 0.33285402103914141 0.55201083938739615 -0.21909692674747908 -0.22381993731213543
leaf_weight=38515 39999 2256 16649 161604 82090 60467 3168 9291 28586 9441 127199 71576 21211 22730 19033 43220 13069 38560 15076 23456 2457 55562 25744 24087 9929 90445 162358 53689 7774 5689 63528 21723 4687 8550 19141 2015 7445 35185 60154 8395 10701 36631 14324 17070 3155 8113 34541 139295 10059 5825 8093 2956 4383 26724 86683 8598 3914 3682 40431 26736 111670 68522
leaf_count=38515 39999 2256 16649 161604 82090 60467 3168 9291 28586 9441 127199 71576 21211 22730 19033 43220 13069 38560 15076 23456 2457 55562 25744 24087 9929 90445 162358 53689 7774 5689 63528 21723 4687 8550 19141 2015 7445 35185 60154 8395 10701 36631 14324 17070 3155 8113 34541 139295 10059 5825 8093 2956 4383 26724 86683 8598 3914 3682 40431 26736 111670 68522
internal_value=3.0934e-10 -0.128545 0.422414 -0.171375 0.281279 -0.055999 0.313753 0.202963 -0.260057 0.803342 0.0361284 -0.243576 0.575587 0.340649 0.568496 -0.150939 0.604243 -0.101872 0.133566 0.985405 0.61193 0.0153679 0.416928 0.0731319 0.52146 -0.169515 -0.304784 0.142387 1.14888 0.852533 -0.338067 0.0382141 1.24672 0.388286 0.48005 0.699911 0.60696 -0.212912 -0.0982493 0.763649 0.657787 0.200529 0.260241 0.798601 0.344541 0.162782 -0.00758446 -0.364112 -0.0847068 0.756865 0.594713 0.932017 0.558225 0.823054 -0.242451 -0.0121638 0.00819983 0.414391 0.277326 0.510301 -0.179257 -0.168043
internal_weight=2.18786e+06 1.67741e+06 510451 1.52931e+06 372455 664624 148094 294175 864690 137996 366875 826175 78280 142769 61354 328701 65914 257125 86740 72082 59098 102235 116125 151406 66403 297749 497474 195212 35917 20924 365181 63114 28143 23626 38174 52845 36196 132293 150599 18467 37504 60718 68013 38281 28899 46673 56264 301653 171663 26803 13918 12885 10072 36165 147150 90688 26644 6850 49722 28751 154890 103707
internal_count=2187859 1677408 510451 1529314 372455 664624 148094 294175 864690 137996 366875 826175 78280 142769 61354 328701 65914 257125 86740 72082 59098 102235 116125 151406 66403 297749 497474 195212 35917 20924 365181 63114 28143 23626 38174 52845 36196 132293 150599 18467 37504 60718 68013 38281 28899 46673 56264 301653 171663 26803 13918 12885 10072 36165 147150 90688 26644 6850 49722 28751 154890 103707
is_linear=0
shrinkage=0.05


Tree=6
num_leaves=63
num_cat=0
split_feature=10 7 7 10 5 9 7 8 15 5 5 7 14 8 7 2 10 5 2 10 12 7 7 9 2 8 2 2 12 14 2 9 5 5 1 5 2 5 9 7 7 6 2 6 1 9 14 5 10 4 9 5 2 13 1 8 10 10 15 6 9 15
split_gain=4.29126e+07 1.2495e+07 8.90732e+06 6.52447e+06 3.28285e+06 2.50328e+06 2.37794e+06 2.34389e+06 1.77344e+06 1.60673e+06 1.49479e+06 1.26378e+06 1.1793e+06 1.15155e+06 1.04511e+06 953218 911249 880951 852623 831341 822446 777831 687729 676869 638132 634134 590233 576066 511965 503179 478922 462955 450821 437242 433851 422797 686128 397329 391506 377043 359898 359285 352288 346739 339763 339265 334373 315549 306301 304212 296672 295263 287599 283691 277278 277076 270734 266528 262744 258818 257783 256080
threshold=29.705000000000002 7.0500000000000007 4.9500000000000011 14.105000000000002 3.1500000000000008 17.500000000000004 8.2500000000000018 96.500000000000014 1.8640101322359779 6.1500000000000012 6.1500000000000012 4.1500000000000012 6.1810416666666672 86.500000000000014 2.9500000000000006 1.5000000000000002 45.475000000000001 3.6500000000000008 9.5000000000000018 1.0000000180025095e-35 29.495000000000001 3.6500000000000008 3.2500000000000004 11.500000000000002 2.5000000000000004 49.500000000000007 11.500000000000002 1.5000000000000002 0.16500000000000004 1.0000000180025095e-35 10.500000000000002 10.500000000000002 -3.6499999999999999 1.8500000000000003 3.5000000000000004 -2.3499999999999992 1.5000000000000002 -0.44999999999999996 5.5000000000000009 11.15 13.15 388.50000000000006 11.500000000000002 178.50000000000003 1.5000000000000002 14.500000000000002 53.827916666666674 -4.9499999999999993 13.765000000000002 1.0000000180025095e-35 5.5000000000000009 4.5500000000000007 4.5000000000000009 31.805000000000003 3.5000000000000004 33.500000000000007 43.085000000000008 57.485000000000007 5.3398250034487438 552.50000000000011 24.500000000000004 6.7626610651743873
decision_type=2 2 2 2 2 2 2 2 2 2 2 2 2 2 2 2 2 2 2 2 2 2 2 2 2 2 2 2 2 2 2 2 2 2 2 2 2 2 2 2 2 2 2 2 2 2 2 2 2 2 2 2 2 2 2 2 2 2 2 2 2 2
left_child=1 3 5 7 8 16 9 12 28 25 11 41 19 39 -9 57 38 22 48 -1 29 43 54 -15 -23 -4 56 47 -3 -16 34 -31 -24 -33 44 -27 -37 49 -2 58 61 -5 52 -14 -29 -22 -34 -25 -6 60 -18 -40 -38 -54 -7 -12 -17 -8 -10 -26 -21 -20
right_child=2 4 6 10 18 17 15 14 13 -11 55 -13 21 23 20 26 50 -19 40 37 45 24 32 27 59 35 -28 30 -30 31 -32 33 46 -35 -36 36 42 -39 51 -41 -42 -43 -44 -45 -46 -47 -48 -49 -50 -51 -52 -53 53 -55 -56 -57 -58 -59 -60 -61 -62 -63
leaf_value=-0.62510611108947256 0.57397518154546501 -0.64507177771719038 0.3682356576343544 0.0082572099027772555 -0.09010870545231868 0.17039248143222513 1.1949661434034498 -0.23971960173050824 -0.026348870202188915 0.12674552404725942 -0.25832464399649546 0.20233729543667797 -0.24443974465101193 0.29032355735656074 -0.58179966076233314 0.63906707949245023 1.0244696247180647 -0.090081443111950779 0.10132715846024298 -0.31997095057173308 -0.10564942213068107 0.088029617012085851 0.15964657201522447 0.75503996456766642 -0.1522933462928584 0.5746220856247175 1.1988469465552076 0.48997111694249179 0.090979951408520499 -0.24148591657221199 0.84739468580463062 0.047014513906045975 0.38528726936295793 -0.11821098715475314 0.35067518195908631 1.2542660903948977 0.80005729475807064 -0.36274107457059873 0.35471886057473861 0.88621536137313228 1.0027929437081544 -0.25785754279680251 1.0391174265300216 -0.37709957537495603 1.0119084482788065 0.22132845138314267 1.1308419182494074 1.4645997772562238 0.13058745110714076 1.6212803511341591 0.62723116641807941 0.031702305971993298 0.39938652810590497 0.85829216977179434 -0.028715677935920694 -0.092613891634162337 0.89688929069949141 1.7296637071394743 0.32381172676891556 -0.29489918135990717 -0.12299563884750318 0.45677062873389718
leaf_weight=25788 16181 3394 17374 178289 53347 40985 11515 133561 9050 17486 34954 109272 148730 11178 5425 21701 6297 33456 10843 35784 10702 24206 30488 2727 136128 38533 9431 6362 7773 42773 19650 63162 39121 109386 15680 6998 17348 203724 32232 2072 1812 13655 7182 73647 6115 30662 1564 3683 22291 223 18535 9064 13429 4495 30496 90632 19183 2922 13129 41522 30999 9513
leaf_count=25788 16181 3394 17374 178289 53347 40985 11515 133561 9050 17486 34954 109272 148730 11178 5425 21701 6297 33456 10843 35784 10702 24206 30488 2727 136128 38533 9431 6362 7773 42773 19650 63162 39121 109386 15680 6998 17348 203724 32232 2072 1812 13655 7182 73647 6115 30662 1564 3683 22291 223 18535 9064 13429 4495 30496 90632 19183 2922 13129 41522 30999 9513
internal_value=1.31563e-10 -0.112053 0.437605 -0.160096 0.261229 0.247226 0.699856 -0.223662 0.46145 0.570613 0.00618006 0.0665998 -0.277341 0.535466 -0.125882 0.94505 0.474856 0.140837 0.0548525 -0.353841 -0.067875 -0.22387 0.194993 0.644595 -0.152809 0.64428 0.842289 0.717635 -0.132729 -0.106215 0.657956 -0.0942322 0.305014 -0.0577294 0.525752 0.698789 0.795541 -0.328002 0.365505 0.24119 0.327545 -0.0106743 0.719926 -0.288374 0.745774 0.13673 0.413948 1.16273 -0.0250681 -0.222384 0.727965 0.28382 0.654932 0.514471 0.0854468 -0.138736 0.760039 1.30319 0.180931 -0.185625 -0.22854 0.267437
internal_weight=2.18786e+06 1.74184e+06 446016 1.54322e+06 198619 258419 187597 1.11642e+06 100813 122845 426802 301216 720751 89646 395671 64752 82309 176110 97806 296518 262110 424233 142654 65395 201856 105359 50315 54217 11167 220746 47807 215321 71173 172548 28157 87985 49452 270730 57477 24251 22168 191944 42454 222377 12477 41364 40685 6410 75638 67006 24832 41296 35272 17924 71481 125586 40884 14437 22179 177650 66783 20356
internal_count=2187859 1741843 446016 1543224 198619 258419 187597 1116422 100813 122845 426802 301216 720751 89646 395671 64752 82309 176110 97806 296518 262110 424233 142654 65395 201856 105359 50315 54217 11167 220746 47807 215321 71173 172548 28157 87985 49452 270730 57477 24251 22168 191944 42454 222377 12477 41364 40685 6410 75638 67006 24832 41296 35272 17924 71481 125586 40884 14437 22179 177650 66783 20356
is_linear=0
shrinkage=0.05


Tree=7
num_leaves=63
num_cat=0
split_feature=10 7 7 10 9 5 5 7 14 2 2 7 7 10 5 10 9 5 9 7 8 10 14 10 7 5 9 2 7 7 7 12 12 14 8 9 8 8 6 6 5 5 8 7 14 5 2 2 5 2 8 7 1 5 14 5 8 8 7 10 2 4
split_gain=3.88064e+07 1.03145e+07 9.13826e+06 5.27579e+06 2.50786e+06 2.41523e+06 2.38008e+06 1.78021e+06 1.75235e+06 1.74965e+06 2.12053e+06 1.68761e+06 1.52786e+06 1.43003e+06 1.15624e+06 1.02232e+06 932366 760432 669914 646541 607305 606294 605820 594049 583719 582073 537505 468897 441688 433287 420988 402119 376810 374870 368487 343663 331854 331518 326992 318816 304143 295352 289044 285540 284702 282104 279473 274468 271432 269368 255031 244446 242158 239801 243820 239152 238655 238072 235418 233743 233285 226622
threshold=26.455000000000002 8.1500000000000004 5.3500000000000005 9.2550000000000008 19.500000000000004 3.7500000000000004 4.0500000000000007 4.5500000000000007 1.0000000180025095e-35 2.5000000000000004 9.5000000000000018 4.6500000000000012 8.7500000000000018 39.305000000000007 6.4500000000000011 45.475000000000001 14.500000000000002 5.1500000000000012 8.5000000000000018 10.65 75.500000000000014 45.475000000000001 6.3997916666666672 52.905000000000008 3.9500000000000006 3.6500000000000008 7.5000000000000009 9.5000000000000018 3.4500000000000006 3.1500000000000008 3.1500000000000008 36.135000000000012 46.145000000000003 30.195208333333337 95.500000000000014 8.5000000000000018 98.500000000000014 47.500000000000007 411.50000000000006 411.50000000000006 5.9500000000000011 1.9500000000000002 84.500000000000014 2.7500000000000004 27.184791666666673 -1.9499999999999997 1.5000000000000002 1.5000000000000002 -4.2499999999999991 2.5000000000000004 90.500000000000014 13.450000000000001 1.5000000000000002 -4.4499999999999993 58.573125000000005 5.8500000000000005 92.500000000000014 35.500000000000007 3.1500000000000008 4.4050000000000011 2.5000000000000004 1.0000000180025095e-35
decision_type=2 2 2 2 2 2 2 2 2 2 2 2 2 2 2 2 2 2 2 2 2 2 2 2 2 2 2 2 2 2 2 2 2 2 2 2 2 2 2 2 2 2 2 2 2 2 2 2 2 2 2 2 2 2 2 2 2 2 2 2 2 2
left_child=1 3 4 8 13 7 12 30 -1 46 22 16 21 40 18 25 59 32 -13 36 -20 34 -11 44 57 28 -15 49 -6 52 60 -22 42 56 -4 -23 -12 -19 -26 -16 -2 -21 -18 -44 -14 -37 48 -47 -3 -8 -30 -29 -17 -31 -55 -24 -9 -7 -28 -10 61 -5
right_child=2 9 6 5 15 24 27 33 11 10 19 14 23 26 39 29 17 37 20 41 31 35 55 -25 38 -27 58 51 50 53 -32 -33 -34 -35 -36 45 -38 -39 -40 -41 -42 -43 43 -45 -46 47 -48 -49 -50 -51 -52 -53 -54 54 -56 -57 -58 -59 -60 -61 -62 -63
leaf_value=-0.599763860898891 0.29455048186171012 0.71459572990783382 0.37418171411273454 -0.0011666047824387721 0.0077794847781746572 -0.31755549072971467 0.9686628518565954 0.070450646051711335 -0.41414126046755134 -0.22166819129702128 0.16553428897142436 -0.27936477221708916 0.71627357077513798 0.80193639960039698 -0.1279240462943928 0.35355829591517396 -0.22943935783825711 -0.3739428411301664 -0.098516552519626321 1.0087430796920387 0.096176176506106534 1.0917120851010269 0.29455804032336519 1.3414264912234897 -0.02294116435880671 -0.13387344553832323 0.32249415719546809 0.4773421984924861 0.076942777996372752 0.21303190062222022 0.037288271973870857 0.45395399575000672 0.11495848850463174 0.40875780295059827 0.63023340687277052 0.58245483025569433 0.54053386274638027 -0.24071792179464332 -0.16849811690367691 -0.28359759758980541 0.026495073546452842 0.56502796639671216 -0.21605804823825034 -0.042214006405840304 0.99197814230098391 1.2772551216282861 0.65490931300212774 0.76073124385973401 1.3706551432641836 0.15251500186973871 0.31007738089520503 1.2027326402754084 0.032261228926223941 0.45489717974614241 1.2663391734651952 0.05292225757796927 0.23292318080984795 -0.17925040441963166 0.57820920113898044 -0.30049982879798409 -0.13183103957585615 1.1582571343986643
leaf_weight=31104 51287 2897 22751 39551 60403 44992 1054 38694 92076 14006 10188 18055 14693 18836 60954 8492 112780 78696 41101 7972 53158 7384 18185 8982 92911 36176 15163 13247 20405 11922 118776 9215 11848 19059 36744 18185 14016 114835 65988 71431 13333 7082 39509 58735 25815 3315 10963 11473 3459 24778 27594 1273 18953 22762 965 23437 54349 100883 22146 88972 99425 426
leaf_count=31104 51287 2897 22751 39551 60403 44992 1054 38694 92076 14006 10188 18055 14693 18836 60954 8492 112780 78696 41101 7972 53158 7384 18185 8982 92911 36176 15163 13247 20405 11922 118776 9215 11848 19059 36744 18185 14016 114835 65988 71431 13333 7082 39509 58735 25815 3315 10963 11473 3459 24778 27594 1273 18953 22762 965 23437 54349 100883 22146 88972 99425 426
internal_value=-1.26487e-10 -0.117303 0.37802 -0.150658 0.218439 -0.0454431 0.65432 0.0403603 -0.231143 0.345698 0.261345 -0.217676 0.746382 0.39962 -0.109693 0.113078 -0.263568 -0.222382 0.00166758 0.542713 0.0507044 0.633792 0.0627776 0.973546 -0.149688 0.039793 0.584206 0.313601 0.0977491 0.28101 -0.0318814 0.149034 -0.159418 0.206737 0.532319 0.783386 0.382688 -0.294892 -0.0833884 -0.211921 0.239243 0.800002 -0.174823 -0.112126 0.891975 0.714339 0.807844 0.876519 1.07163 0.185816 0.210969 0.540939 0.131677 0.395976 0.487899 0.158495 0.165355 -0.221908 0.474282 -0.358295 -0.0908167 0.0111884
internal_weight=2.18786e+06 1.66973e+06 518131 1.55752e+06 328437 675054 189694 370280 882469 112205 94886 851365 149342 120765 253914 207672 597451 416403 121529 39258 103474 99852 55628 49490 304774 144578 56145 40352 108402 63094 258178 62373 222872 112102 59495 40357 24204 193531 158899 132385 64620 15054 211024 98244 40508 32973 17319 14788 6356 25832 47999 14520 27445 35649 23727 41622 93043 145875 37309 181048 139402 39977
internal_count=2187859 1669728 518131 1557523 328437 675054 189694 370280 882469 112205 94886 851365 149342 120765 253914 207672 597451 416403 121529 39258 103474 99852 55628 49490 304774 144578 56145 40352 108402 63094 258178 62373 222872 112102 59495 40357 24204 193531 158899 132385 64620 15054 211024 98244 40508 32973 17319 14788 6356 25832 47999 14520 27445 35649 23727 41622 93043 145875 37309 181048 139402 39977
is_linear=0
shrinkage=0.05


Tree=8
num_leaves=63
num_cat=0
split_feature=10 7 7 10 5 9 7 8 15 5 5 7 8 14 5 7 7 2 7 10 12 7 9 10 2 2 5 8 2 12 2 2 9 9 2 5 8 5 15 5 2 2 1 2 4 5 14 10 10 6 12 1 6 9 6 8 14 1 5 6 2 8
split_gain=3.50609e+07 1.03393e+07 7.29277e+06 5.36122e+06 2.75102e+06 2.09003e+06 1.95874e+06 1.94985e+06 1.55254e+06 1.33602e+06 1.21158e+06 1.01964e+06 1.01649e+06 993165 952163 829537 812669 812040 725556 714009 638628 614500 577085 553755 547504 512084 475493 469774 456701 443392 443308 569653 442195 416851 394140 385641 372529 368530 351213 467591 345784 440226 474993 343258 336318 315493 440996 295556 295180 288759 283384 280079 293349 251942 244441 241000 237381 236408 235128 234073 231481 231207
threshold=29.705000000000002 6.9500000000000011 4.9500000000000011 14.105000000000002 3.0500000000000003 10.500000000000002 8.2500000000000018 97.500000000000014 1.8640101322359779 6.1500000000000012 6.1500000000000012 3.7500000000000004 99.500000000000014 6.8964583333333342 4.6500000000000012 3.1500000000000008 3.1500000000000008 1.5000000000000002 10.350000000000003 1.0000000180025095e-35 38.505000000000003 3.6500000000000008 14.500000000000002 45.475000000000001 2.5000000000000004 11.500000000000002 -3.6499999999999999 10.500000000000002 2.5000000000000004 0.16500000000000004 11.500000000000002 4.5000000000000009 12.500000000000002 8.5000000000000018 2.5000000000000004 -0.84999999999999998 92.500000000000014 16.750000000000004 0.71688587816563321 1.8500000000000003 1.5000000000000002 10.500000000000002 3.5000000000000004 10.500000000000002 1.0000000180025095e-35 -5.8499999999999988 36.185208333333343 13.765000000000002 48.645000000000003 289.50000000000006 31.525000000000002 3.5000000000000004 391.50000000000006 22.500000000000004 119.50000000000001 19.500000000000004 33.599375000000009 1.5000000000000002 -1.9499999999999997 293.50000000000006 10.500000000000002 33.500000000000007
decision_type=2 2 2 2 2 2 2 2 2 2 2 2 2 2 2 2 2 2 2 2 2 2 2 2 2 2 2 2 2 2 2 2 2 2 2 2 2 2 2 2 2 2 2 2 2 2 2 2 2 2 2 2 2 2 2 2 2 2 2 2 2 2
left_child=1 3 5 7 8 23 9 13 29 22 11 59 28 19 16 -9 51 -8 37 -1 33 49 48 -2 -23 -19 -18 -24 -10 -3 31 36 -14 -17 -13 44 54 47 -35 -40 -34 42 57 -36 53 -29 -47 -6 -4 -15 -30 52 -7 -21 -28 -37 -11 -42 -45 -5 -52 -12
right_child=2 4 6 10 18 14 17 15 12 56 61 34 32 21 -16 20 26 25 -20 35 -22 24 27 -25 -26 -27 30 45 50 -31 -32 -33 40 38 43 55 -38 -39 39 -41 41 -43 -44 58 -46 46 -48 -49 -50 -51 60 -53 -54 -55 -56 -57 -58 -59 -60 -61 -62 -63
leaf_value=-0.56269027967846463 0.41638882985695641 -0.59443612055332895 0.6596662997359668 -0.0047946138235496379 -0.025485824897387762 0.19764464035217047 1.1859345042933693 -0.20494361673584441 0.54838302257693916 0.017191347787242812 -0.23506011431003923 0.2974430012938204 0.32254937459821886 -0.22230039038830332 -0.084393225291233082 -0.24224006287789526 0.16637860624305942 0.68392240225077927 0.37013121856308873 -0.29099878215229341 0.20722227114932212 0.095610989409920438 0.092347384536574539 0.79637859670949618 -0.16304077021632157 1.0926496909568491 0.50775876278836252 0.34490309816830533 0.1069575699578266 0.077048847864211345 0.71974908611123922 0.12841537749306906 1.119090272996055 -0.4736100414398795 0.053737067523053961 -0.39006397939002285 0.62283917415418599 -0.22237364587599379 0.068105546271850559 -0.10128100760030596 0.51259366971306919 0.86083169949993632 0.28681679235395602 0.15813550172127505 1.5805800823683152 0.45843322227964117 0.75428696996322986 0.19396999332985373 0.98779306912403464 -0.36063577269121744 0.21551358529155196 -0.016712002605452494 -0.3377600266388377 -0.10421606255292003 0.019491237716600426 -0.28596098348444027 0.47337131709080515 1.0435449433809336 0.47286604455079123 -0.19290700621378803 0.78832259294366747 -0.083330911848265091
leaf_weight=26392 32988 3574 23542 140731 49196 46295 14437 145004 13432 13898 34814 37156 8820 154474 34326 32986 37226 40884 15058 35971 21475 23415 6342 13516 162095 9431 4737 15404 21967 7876 8937 19466 4651 4734 76741 84958 17361 16020 65601 107519 4075 15280 11051 18129 267 25695 24707 22295 9669 49912 3979 35273 2708 36245 5586 160852 3588 4318 8822 18739 3168 90051
leaf_count=26392 32988 3574 23542 140731 49196 46295 14437 145004 13432 13898 34814 37156 8820 154474 34326 32986 37226 40884 15058 35971 21475 23415 6342 13516 162095 9431 4737 15404 21967 7876 8937 19466 4651 4734 76741 84958 17361 16020 65601 107519 4075 15280 11051 18129 267 25695 24707 22295 9669 49912 3979 35273 2708 36245 5586 160852 3588 4318 8822 18739 3168 90051
internal_value=-3.42025e-10 -0.101284 0.39555 -0.145746 0.232478 0.223287 0.632846 -0.20349 0.416088 0.515547 0.00526136 0.0596849 0.485316 -0.250944 0.156676 -0.111105 0.203272 0.855381 0.0495449 -0.312778 -0.0525336 -0.196281 0.582722 0.52683 -0.130394 0.760534 0.30492 0.503329 0.307205 -0.132548 0.396872 0.335673 0.642551 -0.0789909 0.157717 -0.292056 0.481406 -0.00561833 -0.0487136 -0.0370947 0.714231 0.660004 0.502184 0.107649 -0.190704 0.542937 0.60346 0.0429531 0.755197 -0.256083 0.195936 0.0907236 0.168057 -0.197253 0.243547 -0.321942 0.110796 0.785756 0.261158 -0.0268993 0.469419 -0.125635
internal_weight=2.18786e+06 1.74184e+06 446016 1.53708e+06 204760 258419 187597 1.1119e+06 102191 122845 425183 300318 90741 734581 211915 377319 177589 64752 102569 344685 232315 389896 105359 46504 185510 50315 93313 72148 42546 11450 56087 47150 48195 210840 140848 318293 27684 87511 177854 173120 39375 34724 19444 103692 72483 65806 50402 71491 33211 204386 29114 84276 49003 72216 10323 245810 17486 8393 26951 159470 7147 124865
internal_count=2187859 1741843 446016 1537083 204760 258419 187597 1111900 102191 122845 425183 300318 90741 734581 211915 377319 177589 64752 102569 344685 232315 389896 105359 46504 185510 50315 93313 72148 42546 11450 56087 47150 48195 210840 140848 318293 27684 87511 177854 173120 39375 34724 19444 103692 72483 65806 50402 71491 33211 204386 29114 84276 49003 72216 10323 245810 17486 8393 26951 159470 7147 124865
is_linear=0
shrinkage=0.05


Tree=9
num_leaves=63
num_cat=0
split_feature=10 7 7 10 14 5 10 9 15 5 7 6 8 10 5 7 7 9 10 8 9 8 7 9 2 2 9 8 5 5 12 15 7 5 4 2 2 2 6 12 5 10 7 15 8 1 8 9 14 6 5 2 5 8 2 12 6 10 13 2 5 5
split_gain=3.17771e+07 9.30638e+06 7.09139e+06 3.57267e+06 2.38541e+06 2.3608e+06 2.29086e+06 2.17067e+06 1.52623e+06 1.4255e+06 1.2141e+06 1.15021e+06 1.02582e+06 1.01476e+06 949732 834524 744841 627409 608910 603168 568705 555658 538762 534179 467825 546016 460198 458353 451490 521374 425790 409946 395549 391584 392854 380832 379911 370386 349559 345665 344487 316892 287343 274643 265583 261842 261370 260820 255919 249721 247343 244143 260957 242420 237618 237289 228640 222569 220913 219911 274217 219391
threshold=20.385000000000002 6.1500000000000012 6.4500000000000011 36.435000000000009 6.8964583333333342 3.0500000000000003 41.195000000000007 18.500000000000004 1.8640101322359779 3.7500000000000004 3.4500000000000006 313.50000000000006 85.500000000000014 1.0000000180025095e-35 5.9500000000000011 3.1500000000000008 4.1500000000000012 9.5000000000000018 57.485000000000007 99.500000000000014 6.5000000000000009 33.500000000000007 10.450000000000001 17.500000000000004 2.5000000000000004 11.500000000000002 9.5000000000000018 92.500000000000014 -8.1499999999999968 5.6500000000000012 0.16500000000000004 9.7065940482582249 10.050000000000002 -0.84999999999999998 1.0000000180025095e-35 1.5000000000000002 10.500000000000002 2.5000000000000004 638.50000000000011 39.455000000000005 -6.8499999999999988 47.725000000000001 3.9500000000000006 5.3398250034487438 11.500000000000002 3.5000000000000004 98.500000000000014 28.500000000000004 50.127708333333338 175.50000000000003 3.2500000000000004 11.500000000000002 -1.6499999999999997 33.500000000000007 3.5000000000000004 46.605000000000011 313.50000000000006 9.9550000000000018 35.685000000000009 11.500000000000002 -2.0499999999999994 13.15
decision_type=2 2 2 2 2 2 2 2 2 2 2 2 2 2 2 2 2 2 2 2 2 2 2 2 2 2 2 2 2 2 2 2 2 2 2 2 2 2 2 2 2 2 2 2 2 2 2 2 2 2 2 2 2 2 2 2 2 2 2 2 2 2
left_child=2 3 4 14 13 8 11 20 30 10 46 24 43 -1 16 50 26 -14 32 33 -5 -11 38 57 -3 39 -2 37 -17 48 -4 -29 56 34 47 40 45 -25 -7 44 -19 -22 -23 -10 -26 -37 49 -15 54 -6 -9 -28 -53 -16 -30 -21 -8 -12 -50 -56 -61 -13
right_child=1 6 5 7 9 22 18 15 12 21 23 61 17 19 53 28 -18 35 -20 55 41 42 -24 27 25 -27 51 31 29 -31 -32 -33 -34 -35 -36 36 -38 -39 -40 -41 -42 -43 -44 -45 -46 -47 -48 -49 58 -51 -52 52 -54 -55 59 -57 -58 -59 -60 60 -62 -63
leaf_value=-0.52658363692984267 0.23626259854299594 0.72635609477946872 -0.55897530562394893 0.74362880878119864 -0.14655237162722784 0.010176268847855361 0.71844314855017588 0.11192943049215519 -0.036585925393266792 -0.28904126192470064 -0.1625521430307601 0.25186480158938823 0.079191794426663797 -0.25682003632766987 -0.25498953488945608 -0.018229670232789305 0.2393435283976314 0.37389404410088367 1.2022587444205008 -0.15204617820284283 0.35975073085206422 -0.2015020449133762 0.31306483748730585 0.18280761028524353 -0.17289260671828843 0.78220112873604963 -0.023923291158280558 0.10441113955507116 0.4590969703942322 -0.0077260309778776131 0.022360007215777369 0.37895822721047767 0.94600514634948729 -0.30396753810696581 1.5369538328669092 0.57624835021354637 0.70848177853959537 -0.083264335452078855 -0.18245518662946333 0.67804779959364136 1.1914014693778683 0.61703900308793858 -0.097781191544727433 0.2891548547567524 0.35006398722927562 0.26971969630667753 -0.071249099808870162 -0.069526498271950662 0.80796733399420961 -0.31070038226275165 -0.15924960375326613 0.049991263389877062 0.48418792434000368 -0.045072625346996048 0.17604768885385258 0.35963496879091889 0.37966452731391703 0.010382657577581601 0.21204504699153356 0.20863438631353876 0.72884452712785164 -0.066440142892127602
leaf_weight=33531 25858 22459 4504 23808 99577 76814 40332 47145 12411 104973 37288 14303 7360 47852 18834 9488 73904 1849 8673 111003 34409 143885 11333 18559 2619 10308 105035 46983 30204 9190 10476 19134 19358 263136 333 12816 17114 44302 33964 7857 4252 18350 124597 13520 33252 15265 83275 30395 6086 30196 10234 11144 5019 50986 22225 2313 5682 37134 2089 5308 4846 8710
leaf_count=33531 25858 22459 4504 23808 99577 76814 40332 47145 12411 104973 37288 14303 7360 47852 18834 9488 73904 1849 8673 111003 34409 143885 11333 18559 2619 10308 105035 46983 30204 9190 10476 19134 19358 263136 333 12816 17114 44302 33964 7857 4252 18350 124597 13520 33252 15265 83275 30395 6086 30196 10234 11144 5019 50986 22225 2313 5682 37134 2089 5308 4846 8710
internal_value=3.87729e-10 0.281436 -0.129019 0.174574 -0.174287 0.132048 0.598021 0.324949 0.312748 -0.120574 -0.0569666 0.44132 0.395129 -0.26113 0.0590537 0.21239 0.109849 0.510902 0.808609 -0.241568 0.540777 -0.191503 -0.0152915 0.030407 0.534559 0.454843 0.0447703 0.0919574 0.307873 0.346574 -0.152429 0.183864 0.756383 -0.274718 -0.176773 0.572844 0.522789 -0.0047096 -0.0488836 0.377674 0.943644 0.449238 -0.153367 0.13325 0.311882 0.409618 -0.140383 -0.184066 0.39259 -0.184747 0.0635625 0.00391474 0.18482 -0.101698 0.358222 -0.141602 0.676609 -0.0762637 0.655688 0.264124 0.456905 0.131392
internal_weight=2.18786e+06 687715 1.50014e+06 514162 1.27847e+06 221678 173553 223382 99567 789903 416448 99508 84587 488563 290780 146815 220960 58656 74045 455032 76567 373455 122111 203400 76495 54036 147056 128978 89436 79948 14980 66117 65372 341716 78580 51296 45195 62861 110778 43728 6101 52759 268482 25931 35871 28081 213048 78247 70758 129773 57379 121198 16163 69820 62583 113316 46014 74422 8175 32379 10154 23013
internal_count=2187859 687715 1500144 514162 1278466 221678 173553 223382 99567 789903 416448 99508 84587 488563 290780 146815 220960 58656 74045 455032 76567 373455 122111 203400 76495 54036 147056 128978 89436 79948 14980 66117 65372 341716 78580 51296 45195 62861 110778 43728 6101 52759 268482 25931 35871 28081 213048 78247 70758 129773 57379 121198 16163 69820 62583 113316 46014 74422 8175 32379 10154 23013
is_linear=0
shrinkage=0.05


Tree=10
num_leaves=63
num_cat=0
split_feature=10 7 7 10 8 9 10 5 7 7 2 2 10 12 6 2 7 9 2 9 14 14 7 9 7 14 10 14 14 6 8 9 2 6 7 5 8 5 6 15 7 7 8 1 2 2 5 9 5 5 12 13 9 7 5 12 5 9 2 2 2 7
split_gain=2.86894e+07 8.78023e+06 6.21813e+06 4.08764e+06 2.32455e+06 1.76862e+06 1.61279e+06 1.44311e+06 1.34076e+06 1.22067e+06 1.1745e+06 1.41055e+06 1.12373e+06 883386 855276 820567 755095 607267 586303 583492 550780 513966 493592 474626 453645 432822 427950 425463 417579 397722 339823 338418 333708 332421 319421 305688 300681 296297 314072 289578 280158 273884 269340 255711 325629 446907 282902 248550 245738 243720 242627 225652 223320 220795 219808 219462 296874 214593 212280 203174 208672 200121
threshold=19.185000000000006 6.9500000000000011 8.2500000000000018 40.735000000000007 91.500000000000014 22.500000000000004 43.555000000000007 6.1500000000000012 4.4500000000000011 4.1500000000000012 2.5000000000000004 9.5000000000000018 5.1750000000000007 33.985000000000007 415.50000000000006 2.5000000000000004 4.0500000000000007 8.5000000000000018 3.5000000000000004 7.5000000000000009 2.0208333333333335 15.200416666666671 4.2500000000000009 9.5000000000000018 10.65 1.1664583333333336 57.485000000000007 28.784791666666671 6.3997916666666672 378.50000000000006 99.500000000000014 8.5000000000000018 9.5000000000000018 372.50000000000006 3.1500000000000008 -0.44999999999999996 97.500000000000014 -8.1499999999999968 344.50000000000006 0.71688587816563321 2.4500000000000006 3.7500000000000004 96.500000000000014 3.5000000000000004 11.500000000000002 2.5000000000000004 -1.3499999999999999 15.500000000000002 13.050000000000002 6.0500000000000007 18.715000000000003 29.845000000000002 13.500000000000002 5.3500000000000005 1.9500000000000002 36.595000000000006 -3.8499999999999992 16.500000000000004 2.5000000000000004 1.5000000000000002 11.500000000000002 10.950000000000001
decision_type=2 2 2 2 2 2 2 2 2 2 2 2 2 2 2 2 2 2 2 2 2 2 2 2 2 2 2 2 2 2 2 2 2 2 2 2 2 2 2 2 2 2 2 2 2 2 2 2 2 2 2 2 2 2 2 2 2 2 2 2 2 2
left_child=2 3 4 7 12 19 14 9 21 17 52 28 20 18 27 41 -7 -2 47 -5 -1 39 32 -22 42 -20 -8 30 -12 -27 61 -9 -17 43 -21 -25 57 -18 -39 -6 -41 -14 -13 44 45 -19 -46 -10 -24 -15 -30 -52 -4 -37 -26 -38 -57 -11 -23 -32 -61 -3
right_child=1 6 10 5 8 16 26 31 13 36 11 24 15 49 -16 22 37 33 25 34 23 58 48 35 54 29 -28 -29 50 -31 59 -33 -34 -35 -36 53 55 38 -40 40 -42 -43 -44 -45 46 -47 -48 -49 -50 -51 51 -53 -54 -55 -56 56 -58 -59 -60 60 -62 -63
leaf_value=-0.46448669933277648 0.2653071613379529 0.20990051484637393 0.23039225164974095 0.75771870527031004 -0.47998173084987289 0.11616297194753927 0.78301762063915714 0.12657752557048288 -0.051433816363552091 0.31778212956217716 -0.20957191944871029 0.058386467946653864 -0.077600474546516474 0.35561980520359254 0.12745772732695132 -0.26253922981185823 0.02707983768459768 0.22827356723427328 -0.5008308033480644 0.28183779736687559 -0.3816765692095147 0.10162229625616026 -0.075472407733222405 -0.12756085010077892 0.91226157282575659 0.0017100702175690424 1.2036842507357122 0.69124940219993791 0.043258783822516057 -0.20008344574205991 1.0831061865173899 -0.12941380119481585 -0.12773750578179363 -0.22470720632411267 0.53967532514125349 -0.28726861397612513 0.28446470787818667 0.47988434630961474 0.056415849755003335 -0.2337277459542253 -0.12472929015036167 0.14107526932374356 0.45888640917803603 -0.034890540726453943 0.15990130367602554 -0.030913459422267343 0.65681085324893773 0.26043701952867715 -0.20848283280534374 -0.0667707516059967 0.21898543451952995 0.83679820133532512 0.82605852327272855 -0.14710849441318491 0.48628866091818257 0.19213711834231151 0.65855992746264491 0.10465726423603575 -0.076159300453976897 0.45718342448687832 0.85822445173250239 0.64290715581414792
leaf_weight=36022 30001 14973 1857 23107 7365 59650 43262 15433 8734 17708 12919 6612 33557 22664 13949 185067 5152 25177 5308 17483 60825 21645 111872 59978 6308 114861 7028 32059 24095 31010 1819 78988 61058 12738 38384 137317 48259 36519 4975 89685 172038 24976 11498 63566 8306 49000 4372 23790 50355 4021 7050 1870 10306 35327 5825 5138 10153 35467 74873 17264 3994 3247
leaf_count=36022 30001 14973 1857 23107 7365 59650 43262 15433 8734 17708 12919 6612 33557 22664 13949 185067 5152 25177 5308 17483 60825 21645 111872 59978 6308 114861 7028 32059 24095 31010 1819 78988 61058 12738 38384 137317 48259 36519 4975 89685 172038 24976 11498 63566 8306 49000 4372 23790 50355 4021 7050 1870 10306 35327 5825 5138 10153 35467 74873 17264 3994 3247
internal_value=-1.65479e-10 0.256615 -0.12775 0.172681 -0.153924 0.367167 0.616259 0.0835594 -0.0774079 0.135703 0.278857 0.206007 -0.209267 0.0231538 0.486338 -0.159373 0.234009 0.0585603 -0.0158952 0.546393 -0.279971 -0.135276 -0.184469 -0.257321 0.471167 -0.0573266 0.841806 0.554581 0.031426 -0.0411882 0.448485 -0.0875723 -0.229098 0.0205446 0.458988 -0.224805 0.26336 0.384708 0.429112 -0.170781 -0.16208 0.0157083 0.312663 0.041313 0.0970837 0.0570593 0.33126 0.176687 -0.116759 0.291972 0.12573 0.348504 0.735114 -0.258589 0.707754 0.336767 0.501835 0.175631 -0.0362902 0.57593 0.532532 0.287067
internal_weight=2.18786e+06 727171 1.46069e+06 589576 1.37235e+06 185270 137595 404306 575994 309885 88340 76177 796354 210388 87305 466885 106296 193160 183703 78974 329469 365606 408352 293447 30243 151179 50290 73356 45934 145871 41297 94421 246125 163159 55867 232622 116725 46646 41494 269088 261723 58533 18110 150421 86855 74177 12678 32524 162227 26685 33015 8920 12163 172644 12133 63550 15291 53175 96518 23077 21258 18220
internal_count=2187859 727171 1460688 589576 1372348 185270 137595 404306 575994 309885 88340 76177 796354 210388 87305 466885 106296 193160 183703 78974 329469 365606 408352 293447 30243 151179 50290 73356 45934 145871 41297 94421 246125 163159 55867 232622 116725 46646 41494 269088 261723 58533 18110 150421 86855 74177 12678 32524 162227 26685 33015 8920 12163 172644 12133 63550 15291 53175 96518 23077 21258 18220
is_linear=0
shrinkage=0.05


Tree=11
num_leaves=63
num_cat=0
split_feature=10 7 7 10 7 5 8 9 5 5 7 14 15 9 7 9 12 2 10 2 2 7 10 8 5 2 5 2 7 1 7 9 2 2 9 14 14 5 8 6 10 6 7 4 8 5 7 6 15 6 7 13 10 2 2 13 10 13 14 5 2 2
split_gain=2.60159e+07 7.97279e+06 5.33262e+06 4.54955e+06 1.7254e+06 1.65449e+06 1.54805e+06 1.40018e+06 1.14855e+06 1.0283e+06 1.0094e+06 963371 764100 686860 674543 660828 677008 613397 600249 577338 529464 506090 504024 446820 440108 392487 375819 546207 348298 345951 344721 343247 326034 544331 325010 304396 303855 302819 294202 291422 288383 272368 267313 263519 259714 250478 245103 245070 244947 243882 239309 233564 226772 225946 296234 294038 221704 220951 220537 217793 265689 241440
threshold=30.855000000000004 7.5500000000000007 4.4500000000000011 14.105000000000002 8.2500000000000018 0.65000000000000002 99.500000000000014 21.500000000000004 6.5500000000000007 5.9500000000000011 4.4500000000000011 6.1810416666666672 1.4996295063412146 16.500000000000004 3.3500000000000001 15.500000000000002 38.505000000000003 1.5000000000000002 1.0000000180025095e-35 9.5000000000000018 2.5000000000000004 11.15 46.405000000000008 10.500000000000002 3.2500000000000004 11.500000000000002 -2.3499999999999992 1.5000000000000002 13.15 3.5000000000000004 2.6500000000000008 20.500000000000004 10.500000000000002 4.5000000000000009 6.5000000000000009 58.573125000000005 7.9214583333333346 4.6500000000000012 99.500000000000014 388.50000000000006 46.865000000000002 324.50000000000006 5.2500000000000009 1.0000000180025095e-35 42.500000000000007 5.7500000000000009 4.9500000000000011 464.50000000000006 0.85593057365752723 178.50000000000003 2.5500000000000003 38.055000000000007 6.0550000000000006 1.5000000000000002 11.500000000000002 23.335000000000004 59.875000000000007 23.975000000000005 30.195208333333337 -7.3499999999999988 2.5000000000000004 11.500000000000002
decision_type=2 2 2 2 2 2 2 2 2 2 2 2 2 2 2 2 2 2 2 2 2 2 2 2 2 2 2 2 2 2 2 2 2 2 2 2 2 2 2 2 2 2 2 2 2 2 2 2 2 2 2 2 2 2 2 2 2 2 2 2 2 2
left_child=1 3 7 6 8 12 11 22 13 10 39 18 -3 40 49 52 30 -6 -1 36 -16 38 34 -15 29 -19 -25 -28 -21 35 -17 -20 33 -29 -2 47 -7 43 -14 50 -4 46 -18 -33 -22 -38 -32 59 -48 -13 -5 56 -8 -23 55 -55 -31 -40 -12 -9 -61 -62
right_child=2 5 4 9 17 19 15 24 -10 -11 58 14 21 23 20 16 42 25 31 28 44 53 -24 26 -26 -27 27 32 -30 51 41 37 -34 -35 -36 -37 45 -39 57 -41 -42 -43 -44 -45 -46 -47 48 -49 -50 -51 -52 -53 -54 54 -56 -57 -58 -59 -60 60 61 -63
leaf_value=-0.48961169504420127 0.44963559150799953 -0.17279734432495375 0.54761862165150987 -0.057105923334289391 1.0386421550419422 -0.11128883370746268 -0.27063627597469492 -0.029435576727642868 0.071720430060078388 -0.098397984301725472 0.15452207387133537 -0.19185991280457823 0.27014190785458481 0.039887656947643943 0.075225017804237793 -0.16684188842730704 0.14066723255137303 0.59617056936868307 -0.31238159782668529 0.25356227045287172 -0.19452923756651538 1.2293279047724317 0.52922322299313396 0.32539124433296718 -0.11789634670934984 0.96119841957557528 1.0140121823061494 0.58969804986936047 0.86557077129101934 0.058043654283699876 -0.040879145465839289 -0.13226170346182722 0.72261568668690135 0.12513444498312548 0.18600173875685277 1.0339121859679681 0.31043195539111057 -0.26113695240566442 0.40873630641458275 -0.20154575645372541 0.80571050542620792 -0.18876671991981406 0.56281964471399837 1.4939239282608032 -0.090176427615881238 0.040309693013827336 -0.43257176121343638 -0.44040881620354261 0.13399031853413421 -0.30545294466228778 0.05836167950871908 -0.16537868748820928 -0.11795700533966605 0.36338913095727499 1.0482101348059494 0.95399274703310555 0.72555225003990387 0.72030264290743784 0.32985863068877097 0.39481378648144028 0.060457748529757785 0.3846295800065111
leaf_weight=29159 15959 4723 28501 67081 14260 22851 44137 8818 18771 139154 78208 142848 22009 7605 33528 54565 16757 38947 133500 23415 107834 1969 23662 36560 24943 9081 5413 14023 2581 30406 86160 70915 9607 11457 43709 1066 11811 101264 15691 15996 17450 20564 4831 250 133369 31391 2004 1543 39711 70607 135537 13137 54168 7718 3624 2899 1297 8928 23270 17599 21130 7888
leaf_count=29159 15959 4723 28501 67081 14260 22851 44137 8818 18771 139154 78208 142848 22009 7605 33528 54565 16757 38947 133500 23415 107834 1969 23662 36560 24943 9081 5413 14023 2581 30406 86160 70915 9607 11457 43709 1066 11811 101264 15691 15996 17450 20564 4831 250 133369 31391 2004 1543 39711 70607 135537 13137 54168 7718 3624 2899 1297 8928 23270 17599 21130 7888
internal_value=1.78744e-10 -0.0843894 0.352267 -0.117896 0.529614 0.252636 -0.171176 0.174484 0.437436 0.0150763 0.0644071 -0.207567 0.44054 0.489994 -0.162756 -0.0783906 -0.0310675 0.750686 -0.272851 0.114722 -0.11095 0.486639 0.333951 0.405524 0.0705285 0.665189 0.441608 0.546519 0.314325 0.11621 -0.0593765 -0.252191 0.474397 0.380809 0.256514 0.196795 0.0361651 -0.20559 0.402975 0.00391338 0.64563 -0.019873 0.235137 -0.126549 -0.136829 0.114158 0.00728734 0.181134 0.106773 -0.229434 0.0201337 0.0118942 -0.186507 0.727299 0.657887 0.524655 0.0853521 0.521725 0.194729 0.198434 0.241538 0.148578
internal_weight=2.18786e+06 1.76503e+06 422832 1.60542e+06 211675 159610 1.14617e+06 211157 149387 459246 320092 823274 67561 130616 488186 322897 224592 62288 335088 92049 274731 62838 83330 84665 127827 48028 77060 40500 25996 102884 203004 305929 35087 25480 59668 58044 66053 172429 46628 218614 45951 148439 21588 71165 241203 43202 127875 56978 41715 213455 202618 44840 98305 16210 14241 10617 31703 24619 101478 55435 46617 29018
internal_count=2187859 1765027 422832 1605417 211675 159610 1146171 211157 149387 459246 320092 823274 67561 130616 488186 322897 224592 62288 335088 92049 274731 62838 83330 84665 127827 48028 77060 40500 25996 102884 203004 305929 35087 25480 59668 58044 66053 172429 46628 218614 45951 148439 21588 71165 241203 43202 127875 56978 41715 213455 202618 44840 98305 16210 14241 10617 31703 24619 101478 55435 46617 29018
is_linear=0
shrinkage=0.05


Tree=12
num_leaves=63
num_cat=0
split_feature=10 7 7 10 6 9 7 8 7 6 7 15 6 10 9 12 2 2 5 12 9 9 11 9 7 2 2 10 5 2 7 2 14 5 7 2 2 8 10 7 10 8 10 5 7 2 10 5 15 5 8 5 5 15 5 2 5 8 2 5 2 5
split_gain=2.3535e+07 7.64918e+06 4.4577e+06 4.31749e+06 2.01207e+06 1.46628e+06 1.45571e+06 1.38476e+06 1.13602e+06 966442 918184 878536 806170 720259 651985 677249 643991 520050 483682 483551 461375 460294 441688 445697 432362 407807 390705 380202 371709 369641 367275 359218 352227 392943 324850 292429 283950 265379 263672 253066 249073 250113 247328 246527 240437 239988 236005 231398 231250 224470 213830 206303 202425 202105 230078 197515 195220 193720 189834 203232 184534 180274
threshold=32.875000000000007 6.9500000000000011 4.9500000000000011 14.935 427.50000000000006 20.500000000000004 10.450000000000001 97.500000000000014 8.5500000000000025 293.50000000000006 3.9500000000000006 4.3337153433015132 274.50000000000006 4.6650000000000009 13.500000000000002 29.155000000000005 2.5000000000000004 2.5000000000000004 2.0500000000000003 31.525000000000002 12.500000000000002 4.5000000000000009 1.0000000180025095e-35 11.500000000000002 3.1500000000000008 1.5000000000000002 11.500000000000002 53.735000000000007 4.6500000000000012 2.5000000000000004 2.6500000000000008 10.500000000000002 28.459791666666671 -2.8499999999999992 3.9500000000000006 1.5000000000000002 11.500000000000002 98.500000000000014 4.3050000000000006 13.550000000000002 1.0000000180025095e-35 98.500000000000014 46.405000000000008 3.7500000000000004 5.2500000000000009 3.5000000000000004 46.865000000000002 14.950000000000001 1.1733362782610144 -1.8499999999999999 33.500000000000007 2.5500000000000003 0.45000000000000007 1.0249055716600715 10.65 9.5000000000000018 -1.0000000180025095e-35 82.500000000000014 4.5000000000000009 -4.4499999999999993 11.500000000000002 1.8500000000000003
decision_type=2 2 2 2 2 2 2 2 2 2 2 2 2 2 2 2 2 2 2 2 2 2 2 2 2 2 2 2 2 2 2 2 2 2 2 2 2 2 2 2 2 2 2 2 2 2 2 2 2 2 2 2 2 2 2 2 2 2 2 2 2 2
left_child=1 3 5 7 6 21 11 13 12 10 43 40 20 22 38 30 -15 -13 27 37 -4 -2 -1 -24 51 -8 39 -10 42 52 -16 -21 -22 -34 55 -35 -31 -19 -9 -27 -3 -42 -23 -5 -17 -32 57 -36 -47 -38 -11 -7 -12 -6 -55 -18 -25 -26 59 -59 -39 -50
right_child=2 4 8 9 53 24 25 14 18 50 29 17 -14 16 15 44 34 19 -20 31 32 28 23 56 46 26 -28 -29 -30 36 45 -33 33 35 47 -37 49 60 -40 -41 41 -43 -44 -45 -46 48 -48 -49 61 -51 -52 -53 -54 54 -56 -57 -58 58 -60 -61 -62 -63
leaf_value=-0.46565319277887363 0.62899337580238579 -0.47231238672166076 0.70588866384898774 0.024138415612788334 -0.54271608004632843 0.063233818205725906 1.1438120782503518 -0.31656298755697804 0.75342069959236291 -0.22703104270216501 0.26392933114618689 0.54734466084378774 0.16841685112670957 0.0028152742929605564 -0.18290998545927231 0.070109425017361657 -0.2512102964084208 0.039967659042436252 0.48823290990885282 0.26680452091727463 0.27783038253403103 0.29346313053368528 -0.35057580572602293 -0.13483818377073839 -0.0041257028210040904 0.38060200009008183 0.89215877602193105 1.1361022671755574 0.052341129748272187 0.081316332016460338 0.079548843630923433 0.7632418906884707 0.38401871593369158 1.0304123901689508 -0.10256685622647557 0.58671499764492308 0.20111479743966756 0.21698826816492178 -0.143098966445212 0.77834030099409901 -0.059292616882212115 0.19260659802304614 0.51192662872500005 -0.09569287419814515 0.36149642846737412 -0.36824525308204148 0.31357112066424297 -0.25727653196205702 0.039370897864789339 0.65931024246944769 -0.067415717576431264 -0.14857955080718768 0.70851849042812165 0.14466860744488208 -0.096055587380982813 -0.14281650830054904 -0.23853487102734708 0.04368732855711225 0.092186049697506309 0.50093734030129167 0.59673087243533962 -0.092824816785149519
leaf_weight=24363 14677 2379 25336 147353 2049 50860 2790 31394 30891 33623 29346 17542 19247 52047 66953 38710 166260 23161 13661 8151 19709 36240 73779 63743 17764 25247 5792 8217 10878 99378 31608 6590 23378 4607 132614 19148 9832 20065 72495 4752 21840 17956 20164 60560 8664 6328 25938 29556 34654 3671 55813 14853 2805 13174 40261 56245 157615 3489 15016 8007 3806 100815
leaf_count=24363 14677 2379 25336 147353 2049 50860 2790 31394 30891 33623 29346 17542 19247 52047 66953 38710 166260 23161 13661 8151 19709 36240 73779 63743 17764 25247 5792 8217 10878 99378 31608 6590 23378 4607 132614 19148 9832 20065 72495 4752 21840 17956 20164 60560 8664 6328 25938 29556 34654 3671 55813 14853 2805 13174 40261 56245 157615 3489 15016 8007 3806 100815
internal_value=-7.18427e-11 -0.0754331 0.356511 -0.113321 0.204075 0.208254 0.294013 -0.164467 0.553247 0.0193882 0.0565899 0.209043 0.46274 -0.203987 -0.0881521 -0.0493865 -0.16225 0.307089 0.744358 0.238862 0.524195 0.375294 -0.261038 -0.244147 0.107536 0.561581 0.516194 0.833826 0.319951 0.153148 -0.0834423 0.488738 0.455326 0.529547 -0.184584 0.672765 0.110548 0.160544 -0.195518 0.443606 0.0246559 0.0543646 0.371562 -0.0107655 0.1234 -0.0450371 0.193805 -0.130763 -0.0728085 0.325682 -0.127422 0.015358 0.302717 -0.0553935 -0.0367068 -0.22381 -0.208674 0.123643 0.209252 0.362163 0.277535 -0.0590081
internal_weight=2.18786e+06 1.80578e+06 382080 1.59022e+06 215555 217886 160071 1.14784e+06 164194 442381 352945 121490 111425 756222 391621 287732 436722 79315 52769 61773 92178 81959 319500 295137 135927 38581 35791 39108 67282 145032 240358 14741 66842 47133 384675 23755 112881 47032 103889 29999 42175 39796 56404 207913 47374 173405 70214 162170 141797 13503 89436 65713 32151 55484 53435 222505 221358 44276 26512 11496 23871 135469
internal_count=2187859 1805779 382080 1590224 215555 217886 160071 1147843 164194 442381 352945 121490 111425 756222 391621 287732 436722 79315 52769 61773 92178 81959 319500 295137 135927 38581 35791 39108 67282 145032 240358 14741 66842 47133 384675 23755 112881 47032 103889 29999 42175 39796 56404 207913 47374 173405 70214 162170 141797 13503 89436 65713 32151 55484 53435 222505 221358 44276 26512 11496 23871 135469
is_linear=0
shrinkage=0.05


Tree=13
num_leaves=63
num_cat=0
split_feature=10 7 7 10 10 5 14 9 15 5 9 9 15 8 5 7 7 14 5 10 7 9 7 7 6 7 9 8 5 7 11 12 5 5 6 12 6 5 2 2 1 7 8 6 2 8 4 13 12 7 6 12 8 5 7 5 10 4 1 5 2 5
split_gain=2.1323e+07 6.0529e+06 5.18914e+06 2.23792e+06 2.03166e+06 1.70577e+06 1.44102e+06 1.24601e+06 1.13012e+06 1.07433e+06 1.00126e+06 937010 785617 755189 636853 582684 576053 540268 524135 517792 492755 463048 449829 425178 422018 394000 377492 356283 334190 323531 321786 304201 302065 291557 274883 262447 262335 300046 261705 326540 356949 236483 235116 234150 226700 211541 205547 201597 208179 195338 194862 199381 192570 188450 184091 182860 180551 179190 193239 178142 176058 174667
threshold=21.945000000000004 6.1500000000000012 6.4500000000000011 40.735000000000007 8.7450000000000028 3.0500000000000003 28.108333333333338 24.500000000000004 1.8640101322359779 1.9500000000000002 8.5000000000000018 12.500000000000002 3.2931423995169351 99.500000000000014 6.1500000000000012 9.0500000000000025 3.4500000000000006 51.481666666666676 4.4500000000000011 1.0000000180025095e-35 4.1500000000000012 8.5000000000000018 3.3500000000000001 3.2500000000000004 563.50000000000011 10.050000000000002 8.5000000000000018 44.500000000000007 8.4500000000000011 10.450000000000001 41.235000000000007 0.16500000000000004 -8.1499999999999968 8.4500000000000011 60.500000000000007 55.915000000000006 315.50000000000006 -5.6499999999999995 1.5000000000000002 10.500000000000002 3.5000000000000004 3.1500000000000008 21.500000000000004 66.500000000000014 1.5000000000000002 48.500000000000007 1.0000000180025095e-35 1.0000000180025095e-35 21.785000000000004 11.15 372.50000000000006 36.595000000000006 97.500000000000014 2.2500000000000004 3.3500000000000001 -3.0499999999999994 32.875000000000007 1.0000000180025095e-35 2.5000000000000004 -3.5499999999999994 3.5000000000000004 -4.9499999999999993
decision_type=2 2 2 2 2 2 2 2 2 2 2 2 2 2 2 2 2 2 2 2 2 2 2 2 2 2 2 2 2 2 2 2 2 2 2 2 2 2 2 2 2 2 2 2 2 2 2 2 2 2 2 2 2 2 2 2 2 2 2 2 2 2
left_child=2 3 4 11 10 8 15 21 31 16 -1 34 19 30 20 28 57 25 22 -12 50 -5 -14 -9 29 36 -15 -11 42 -7 49 -4 -25 35 56 46 37 -8 61 40 60 -23 -3 -34 -17 -20 54 -24 -49 -10 51 -13 -22 -27 -21 -53 -2 -6 -59 -19 -40 -28
right_child=1 6 5 7 9 24 17 23 13 27 12 14 18 26 -16 44 -18 59 45 33 52 41 47 32 -26 53 38 -29 -30 -31 -32 -33 43 -35 -36 -37 -38 -39 39 -41 -42 -43 -44 -45 -46 -47 -48 48 -50 -51 -52 55 -54 -55 -56 -57 -58 58 -60 -61 -62 -63
leaf_value=-0.31549039352059244 0.23181708755988778 -0.047071843191148988 -0.47757183709587131 0.63032497041504154 -0.068912682282113891 0.027412731774093708 0.36293010740480086 0.042338187851412447 0.10368675335002651 -0.20836918110405087 -0.43560996099253863 -0.010612390897040375 -0.1366145621441596 0.053803247950105264 -0.13582918418813261 1.0196351636656871 0.087742907449224777 0.69236381707365746 -0.24481389795154423 -0.22395309929825535 0.087255163840182642 0.22411081568743219 0.82448296024722589 -0.066136082486276893 -0.12611596399328762 0.84576082325605517 0.50298577385806709 -0.09119929962135323 0.0057782496362452813 0.3399178824421043 0.54348136148529003 0.013799218914079337 0.38924971785093593 -0.28015604026951929 0.10243378899439398 1.6268597768802271 0.26356090627431189 0.63705531072570221 0.75092602289360799 0.66997374968270851 0.18107379693171705 0.44182191618708977 0.36229642911840143 0.15830573093619763 0.47833346836839807 -0.13546346268588358 1.0731666690236457 -0.041477140218133673 0.1171383115221843 0.49621026386872824 -0.21192522493906335 0.0052492330590887919 0.26662203165797926 0.52023310542772927 -0.1144828326212599 0.26787130469391374 0.44126573572639505 1.2693665427708878 -0.061620649678433628 1.2220197780325088 0.29484755153980696 1.1304673833273713
leaf_weight=133181 31334 4021 4504 23560 126982 70647 13167 37022 35527 96633 27483 86183 88707 4653 49806 2109 124069 2360 69648 78520 28011 19251 775 6182 45913 18655 1833 197437 12654 9382 5617 10476 30241 86212 28006 204 7967 41271 6096 14135 12093 35428 27464 17228 23344 121177 333 58494 32005 3480 9287 12378 32126 5837 75170 14269 15320 522 571 4850 3241 2808
leaf_count=133181 31334 4021 4504 23560 126982 70647 13167 37022 35527 96633 27483 86183 88707 4653 49806 2109 124069 2360 69648 78520 28011 19251 775 6182 45913 18655 1833 197437 12654 9382 5617 10476 30241 86212 28006 204 7967 41271 6096 14135 12093 35428 27464 17228 23344 121177 333 58494 32005 3480 9287 12378 32126 5837 75170 14269 15320 522 571 4850 3241 2808
internal_value=-1.27467e-11 0.24293 -0.100297 0.152674 -0.138564 0.118625 0.505171 0.298823 0.268004 -0.0647705 -0.190781 0.0721886 -0.164778 0.335292 0.022619 0.332661 0.0109577 0.632742 -0.117643 -0.230014 0.0659194 0.445017 -0.0564329 0.172677 -0.00527723 0.598233 0.480165 -0.129702 0.222795 0.0640485 0.189656 -0.13394 0.262618 -0.206514 0.226262 -0.165349 0.531534 0.570752 0.529507 0.483426 0.360381 0.365172 0.310015 0.305433 0.523185 -0.175375 -0.167722 0.0214938 0.0146173 0.138706 0.0082255 0.026346 0.183075 0.76818 -0.170411 0.145879 0.300595 -0.0634257 0.574038 1.04865 0.592615 0.882639
internal_weight=2.18786e+06 639331 1.54853e+06 475632 1.31812e+06 230405 163699 168912 104463 546214 771909 306720 638728 89483 232060 69592 252144 94107 370806 267922 182254 78239 179981 90673 125942 86897 44859 294070 44139 80029 44624 14980 53651 240439 74660 154227 62405 54438 40206 35565 21430 54679 31485 47469 25453 190825 154023 91274 90499 39007 122117 112830 60137 24492 153690 26647 46654 128075 1093 7210 9337 4641
internal_count=2187859 639331 1548528 475632 1318123 230405 163699 168912 104463 546214 771909 306720 638728 89483 232060 69592 252144 94107 370806 267922 182254 78239 179981 90673 125942 86897 44859 294070 44139 80029 44624 14980 53651 240439 74660 154227 62405 54438 40206 35565 21430 54679 31485 47469 25453 190825 154023 91274 90499 39007 122117 112830 60137 24492 153690 26647 46654 128075 1093 7210 9337 4641
is_linear=0
shrinkage=0.05


Tree=14
num_leaves=63
num_cat=0
split_feature=10 7 7 10 10 5 14 9 6 15 5 7 8 10 6 2 2 9 7 7 9 9 2 8 6 9 12 13 15 12 14 7 2 4 7 8 5 5 2 5 15 12 2 5 5 14 8 2 5 5 14 2 5 1 5 5 5 1 6 5 2 6
split_gain=1.93266e+07 6.11122e+06 4.17895e+06 2.17198e+06 1.98571e+06 1.4747e+06 1.36347e+06 1.19598e+06 1.17834e+06 1.03689e+06 840054 765653 701759 604929 579057 541242 570323 539439 532948 530436 446610 445371 399041 352288 346262 334789 334461 333503 341254 322214 310155 298474 288302 283089 284943 281519 279785 443358 274037 268862 261064 258123 244192 288011 243920 240911 233695 221980 259184 217184 221034 216269 212293 275945 210203 210183 209781 207680 205817 212193 254413 203565
threshold=18.755000000000006 5.3500000000000005 6.3500000000000005 41.675000000000004 36.435000000000009 3.0500000000000003 6.8964583333333342 10.500000000000002 274.50000000000006 1.8020300043572315 5.9500000000000011 3.3500000000000001 76.500000000000014 1.0000000180025095e-35 293.50000000000006 2.5000000000000004 11.500000000000002 10.500000000000002 3.1500000000000008 8.5500000000000025 11.500000000000002 19.500000000000004 5.5000000000000009 75.500000000000014 638.50000000000011 7.5000000000000009 39.455000000000005 1.0000000180025095e-35 9.9330250280055417 42.185000000000009 51.481666666666676 10.450000000000001 2.5000000000000004 1.0000000180025095e-35 3.6500000000000008 33.500000000000007 -4.4499999999999993 4.4500000000000011 1.5000000000000002 -5.7499999999999991 15.578811495489051 0.16500000000000004 11.500000000000002 -1.5499999999999998 -3.0499999999999994 58.573125000000005 98.500000000000014 1.5000000000000002 -4.9499999999999993 -9.9499999999999975 30.195208333333337 10.500000000000002 3.2500000000000004 3.5000000000000004 9.3500000000000032 -7.5499999999999989 2.1500000000000008 5.5000000000000009 254.50000000000003 -1.9499999999999997 1.5000000000000002 336.50000000000006
decision_type=2 2 2 2 2 2 2 2 2 2 2 2 2 2 2 2 2 2 2 2 2 2 2 2 2 2 2 2 2 2 2 2 2 2 2 2 2 2 2 2 2 2 2 2 2 2 2 2 2 2 2 2 2 2 2 2 2 2 2 2 2 2
left_child=2 4 6 8 14 9 13 -6 15 41 11 -8 -11 -1 20 -3 26 -14 52 25 -2 -13 33 38 31 -5 49 -25 -29 32 56 -7 -22 34 55 -12 -20 45 -23 -28 47 -4 -34 -44 -31 61 -18 48 -19 -17 -51 -41 53 -9 -10 -15 -21 -45 59 -27 -61 -38
right_child=1 3 5 19 7 24 10 18 54 12 35 21 17 22 -16 16 46 40 36 30 29 23 -24 27 -26 58 39 28 -30 44 -32 -33 42 -35 -36 -37 37 -39 -40 51 -42 -43 43 57 -46 -47 -48 -49 -50 50 -52 -53 -54 -55 -56 -57 -58 -59 -60 60 -62 -63
leaf_value=-0.41471410150955823 0.17801370447825252 0.54598552138677159 -0.45323125902205014 0.77387499188622233 0.49847306614925257 -6.8679338990221281e-05 -0.12633859452233273 0.20376847767411271 0.18647086916054359 0.074074501523367212 -0.24694442738158517 -0.079613668096651713 0.028153841457031922 -0.4123944539044388 -0.133220782033837 -0.43422360930097892 0.28817046796111334 0.35439387718925885 0.1140700658317529 0.77127869633617241 0.11638298644281353 0.23804425021565964 -0.22761400950013322 1.2154982519734654 -0.15222153234783803 0.38893304012664293 -0.044449063706351655 0.055188135995554624 0.28495088137075486 0.031294993946216161 1.2160551814625178 0.30584711441186407 -0.06930712122800245 1.1160853337888657 -0.050459549993849231 -0.13668595246269111 0.38961636107090702 0.030820442297899472 -0.078099467437833872 0.4287518464065343 0.8795903329090079 -0.008128212473656235 0.013838766867196019 0.64981600356885982 0.34644935553429318 1.0667285975449561 0.71137992678636508 0.38547936538535726 1.03860561335799 0.15424253412017144 0.37906249001700532 0.92217098446515799 -0.11697669002196594 -0.017868624812931656 -0.036665954859938468 -0.16286739313155024 0.4738027085149879 -0.30720306972631384 0.2167175033992994 0.99875226638470327 0.52983410894377936 0.047736499001683426
leaf_weight=33255 55700 33094 4744 9532 33797 82017 218922 32792 19752 24237 81683 96436 8712 9450 49957 1328 4682 2583 25796 24939 36266 7941 294512 696 36748 22030 1977 60657 22030 12513 3204 8832 112656 456 63123 198771 44782 11594 50102 6639 3359 10393 12017 3512 12054 1223 10755 43114 2982 42106 14767 3337 12714 24563 22666 78901 7774 676 7924 3545 15717 4823
leaf_count=33255 55700 33094 4744 9532 33797 82017 218922 32792 19752 24237 81683 96436 8712 9450 49957 1328 4682 2583 25796 24939 36266 7941 294512 696 36748 22030 1977 60657 22030 12513 3204 8832 112656 456 63123 198771 44782 11594 50102 6639 3359 10393 12017 3512 12054 1223 10755 43114 2982 42106 14767 3337 12714 24563 22666 78901 7774 676 7924 3545 15717 4823
internal_value=9.91909e-11 0.207189 -0.106588 0.405121 0.10333 0.0899979 -0.143375 0.228469 0.29343 0.233637 -0.100684 -0.0588627 0.301543 -0.208986 0.0219448 0.374271 0.307877 0.392295 0.170819 0.595199 0.0535332 0.00324031 -0.193662 0.059737 -0.0227139 0.502656 0.247333 0.125577 0.116403 0.0169819 0.746569 0.0296713 -0.00815332 -0.127847 -0.131591 -0.168799 0.252585 0.309826 -0.0348471 0.488237 0.453258 -0.147625 -0.0432022 0.138277 0.185928 0.373468 0.583022 0.423839 0.721028 0.197857 0.212617 0.593802 0.0678735 0.10885 0.067238 -0.189557 0.700586 0.49534 0.450127 0.494918 0.616134 0.356376
internal_weight=2.18786e+06 743203 1.44466e+06 255768 487435 227721 1.21694e+06 192084 161103 100124 737238 456784 84987 479697 295351 118685 85591 60750 158287 94665 245394 237862 446442 141426 127597 58748 70154 83383 82687 189694 35917 90849 165127 151930 151474 280454 88218 62422 58043 11953 52038 15137 128861 16205 24567 50828 15437 48679 5565 58201 56873 9976 70069 57355 42418 88351 32713 4188 49216 41292 19262 49605
internal_count=2187859 743203 1444656 255768 487435 227721 1216935 192084 161103 100124 737238 456784 84987 479697 295351 118685 85591 60750 158287 94665 245394 237862 446442 141426 127597 58748 70154 83383 82687 189694 35917 90849 165127 151930 151474 280454 88218 62422 58043 11953 52038 15137 128861 16205 24567 50828 15437 48679 5565 58201 56873 9976 70069 57355 42418 88351 32713 4188 49216 41292 19262 49605
is_linear=0
shrinkage=0.05


Tree=15
num_leaves=63
num_cat=0
split_feature=10 7 7 10 7 9 12 10 10 5 7 2 2 9 6 5 6 15 7 8 9 2 11 12 9 12 2 5 9 9 10 2 9 7 2 14 7 5 2 5 6 8 2 8 6 13 5 8 8 5 6 7 5 8 8 14 5 0 15 13 7 13
split_gain=1.74423e+07 5.5562e+06 3.82226e+06 2.61519e+06 1.6683e+06 1.15411e+06 1.109e+06 1.08738e+06 960986 954088 859964 750061 974918 658519 654029 627289 608465 503822 462598 444495 431034 357095 352644 324729 319837 316990 315476 342920 312347 296323 270174 267529 254378 252521 250589 249679 241660 240298 222862 221921 234004 209364 209123 208487 206592 205926 207626 204672 203534 199813 303670 198752 213324 198104 196384 195560 229233 189339 183605 177851 176678 174987
threshold=18.755000000000006 6.9500000000000011 8.5500000000000025 40.735000000000007 4.9500000000000011 23.500000000000004 31.525000000000002 45.475000000000001 7.495000000000001 6.1500000000000012 3.4500000000000006 2.5000000000000004 9.5000000000000018 9.5000000000000018 482.50000000000006 3.2500000000000004 415.50000000000006 1.8640101322359779 4.0500000000000007 79.500000000000014 5.5000000000000009 2.5000000000000004 42.645000000000003 23.415000000000003 16.500000000000004 15.555000000000001 11.500000000000002 -1.8499999999999999 6.5000000000000009 16.500000000000004 57.485000000000007 3.5000000000000004 7.5000000000000009 3.4500000000000006 2.5000000000000004 1.0000000180025095e-35 10.65 3.9500000000000006 2.5000000000000004 -8.1499999999999968 150.50000000000003 96.500000000000014 11.500000000000002 57.500000000000007 388.50000000000006 29.845000000000002 -1.1499999999999997 98.500000000000014 81.500000000000014 -1.9499999999999997 164.50000000000003 2.6500000000000008 2.5500000000000003 48.500000000000007 33.500000000000007 2.0208333333333335 -0.54999999999999993 11.500000000000002 1.8640101322359779 26.835000000000004 10.250000000000002 1.0000000180025095e-35
decision_type=2 2 2 2 2 2 2 2 2 2 2 2 2 2 2 2 2 2 2 2 2 2 2 2 2 2 2 2 2 2 2 2 2 2 2 2 2 2 2 2 2 2 2 2 2 2 2 2 2 2 2 2 2 2 2 2 2 2 2 2 2 2
left_child=2 3 4 9 8 20 14 16 13 10 28 -4 25 -1 17 38 23 -6 -7 55 -5 49 37 34 -19 58 29 -28 -2 -23 -9 48 -11 -22 -3 -21 41 -8 -10 -20 -41 -14 -36 -17 -30 -27 -47 -40 -26 -12 -51 -37 -53 -31 -34 -15 -57 -16 -13 -55 -25 -33
right_child=1 7 11 5 6 18 22 30 15 32 21 12 36 19 57 43 -18 24 39 35 33 26 -24 60 31 45 27 -29 44 53 -32 61 54 -35 42 51 -38 -39 47 40 -42 -43 -44 -45 -46 46 -48 -49 -50 50 -52 52 -54 59 -56 56 -58 -59 -60 -61 -62 -63
leaf_value=-0.30757999967342231 0.21862847565625232 0.56224625022725361 0.630446385009515 0.65663183599831654 -0.211340413898852 0.081169165394137377 0.23519629677582229 0.63386769049152847 0.040209748286934625 0.12244703945043495 0.22192372856670178 -0.36189626303594624 0.028814301340794421 -0.36479275149456314 -0.26147156845610414 -0.21712980914552329 0.095624739815708085 -0.078813354841819852 -0.018617793185678886 -0.39773282025942169 0.24457558604418708 0.21555028371712048 0.54414712863589265 0.47614179672223855 0.021865579141227009 0.14457376721372014 0.17148712910226405 0.60842091752390492 0.0035271567222177249 -0.12097361130084171 0.97255487847239985 0.81256293308674954 -0.2317737462980313 0.44537719162600037 0.23860525993453419 -0.1709372455384813 0.57645835579802207 -0.031707425157336676 -0.11944951415893133 0.40894025046014415 0.13660484978932771 0.41311869465177964 0.5613193187233857 -0.11780845543326411 -0.25337295370180302 1.1768858700934763 0.12400396518858184 -0.0068717838841304947 0.31292579184251229 0.59452138722372305 0.14315765218815343 0.0060411611708468876 -0.12561585071945655 0.029095445110596259 -0.060469795902633322 -0.12064093262162928 -0.23430933498353543 -0.1157615780978591 -0.0159690761739265 0.24364092253628603 0.71536599939332546 0.017203888301240484
leaf_weight=109351 16374 11297 10671 16280 28791 57512 25341 36308 61773 14092 36400 4607 5487 20400 36672 91539 15084 64754 4998 7620 25136 34009 6530 22269 9690 9550 14330 6540 119122 15701 7028 696 22971 41517 30096 74139 11924 12639 94094 28991 10836 10008 6025 124968 8376 1066 835 70715 15800 10410 5804 55022 69797 39514 61586 61186 161238 56867 22914 12785 11812 107972
leaf_count=109351 16374 11297 10671 16280 28791 57512 25341 36308 61773 14092 36400 4607 5487 20400 36672 91539 15084 64754 4998 7620 25136 34009 6530 22269 9690 9550 14330 6540 119122 15701 7028 696 22971 41517 30096 74139 11924 12639 94094 28991 10836 10008 6025 124968 8376 1066 835 70715 15800 10410 5804 55022 69797 39514 61586 61186 161238 56867 22914 12785 11812 107972
internal_value=-1.72707e-10 0.19683 -0.101259 0.130991 -0.120565 0.287361 -0.0291675 0.480705 -0.153932 0.0616853 0.103668 0.241356 0.178818 -0.19754 -0.0615757 -0.098941 0.387337 -0.0158496 0.17502 -0.170765 0.425987 0.177957 0.204732 0.441328 0.0124462 0.0181056 0.131286 0.308408 0.0130514 0.0950492 0.688794 0.0564945 -0.0742293 0.369651 0.356715 -0.116852 0.407246 0.146376 -0.0407868 0.295433 0.334844 0.277031 0.292434 -0.159801 -0.0133499 0.239174 0.714415 -0.0711455 0.20228 0.286956 0.43295 -0.106094 -0.0675796 0.0347826 -0.107007 -0.21663 -0.203041 -0.172887 -0.0738771 0.0815432 0.559054 0.022298
internal_weight=2.18786e+06 743203 1.44466e+06 603284 1.36759e+06 185270 365752 139919 1.00184e+06 418014 319365 77062 66391 558753 321242 443089 96583 227703 102337 449402 82933 175493 44510 81499 198912 38972 122879 20870 143872 102009 43336 134158 98649 66653 47418 206578 27419 37980 226582 44825 39827 15495 36121 216507 127498 11451 1901 164809 25490 52614 16214 198958 124819 68000 84557 242824 222424 93539 27521 52299 34081 108668
internal_count=2187859 743203 1444656 603284 1367594 185270 365752 139919 1001842 418014 319365 77062 66391 558753 321242 443089 96583 227703 102337 449402 82933 175493 44510 81499 198912 38972 122879 20870 143872 102009 43336 134158 98649 66653 47418 206578 27419 37980 226582 44825 39827 15495 36121 216507 127498 11451 1901 164809 25490 52614 16214 198958 124819 68000 84557 242824 222424 93539 27521 52299 34081 108668
is_linear=0
shrinkage=0.05


Tree=16
num_leaves=63
num_cat=0
split_feature=10 7 10 7 9 5 12 7 9 2 2 7 8 5 9 2 8 10 7 7 14 8 14 9 8 5 2 13 2 10 7 2 5 14 7 11 14 2 14 5 2 5 5 6 10 9 10 12 7 5 1 1 5 2 2 2 2 1 8 1 14 13
split_gain=1.58368e+07 5.19832e+06 3.26297e+06 3.1309e+06 1.09234e+06 991052 971238 948608 919970 890811 1.19526e+06 882519 737218 707369 517612 495185 475083 463923 368391 368212 358526 356169 351677 341261 327037 326752 308165 297478 291811 289002 282457 273108 270480 270026 265322 264727 261824 259793 256505 256590 263337 250104 244269 235426 232481 229849 220531 213635 213486 203288 202912 200909 199908 198537 198515 239601 197614 194008 189385 188466 253867 211139
